digraph Tree {
node [shape=box, style="filled", color="black"] ;
0 [label="tenure <= -0.5\ngini = 0.4\nsamples = 5274\nvalue = [3869, 1405]\nclass = Not churn", fillcolor="#eeaf81"] ;
1 [label="InternetService_Fiber optic <= 0.5\ngini = 0.5\nsamples = 2073\nvalue = [1153, 920]\nclass = Not churn", fillcolor="#fae6d7"] ;
0 -> 1 [labeldistance=2.5, labelangle=45, headlabel="True"] ;
2 [label="tenure <= -1.2\ngini = 0.4\nsamples = 1195\nvalue = [863, 332]\nclass = Not churn", fillcolor="#efb185"] ;
1 -> 2 ;
3 [label="MonthlyCharges <= -1.5\ngini = 0.5\nsamples = 456\nvalue = [261, 195]\nclass = Not churn", fillcolor="#f8dfcd"] ;
2 -> 3 ;
4 [label="TotalCharges <= -1.0\ngini = 0.4\nsamples = 176\nvalue = [128, 48]\nclass = Not churn", fillcolor="#efb083"] ;
3 -> 4 ;
5 [label="PaperlessBilling_Yes <= 0.5\ngini = 0.5\nsamples = 85\nvalue = [51, 34]\nclass = Not churn", fillcolor="#f6d5bd"] ;
4 -> 5 ;
6 [label="Partner_Yes <= 0.5\ngini = 0.4\nsamples = 56\nvalue = [39, 17]\nclass = Not churn", fillcolor="#f0b88f"] ;
5 -> 6 ;
7 [label="MonthlyCharges <= -1.5\ngini = 0.5\nsamples = 49\nvalue = [32, 17]\nclass = Not churn", fillcolor="#f3c4a2"] ;
6 -> 7 ;
8 [label="gini = 0.0\nsamples = 6\nvalue = [6, 0]\nclass = Not churn", fillcolor="#e58139"] ;
7 -> 8 ;
9 [label="TotalCharges <= -1.0\ngini = 0.5\nsamples = 43\nvalue = [26, 17]\nclass = Not churn", fillcolor="#f6d3ba"] ;
7 -> 9 ;
10 [label="gini = 0.0\nsamples = 3\nvalue = [0, 3]\nclass = Churn", fillcolor="#399de5"] ;
9 -> 10 ;
11 [label="gender_Male <= 0.5\ngini = 0.5\nsamples = 40\nvalue = [26, 14]\nclass = Not churn", fillcolor="#f3c5a4"] ;
9 -> 11 ;
12 [label="index <= -1.1\ngini = 0.3\nsamples = 13\nvalue = [11, 2]\nclass = Not churn", fillcolor="#ea985d"] ;
11 -> 12 ;
13 [label="index <= -1.4\ngini = 0.5\nsamples = 5\nvalue = [3, 2]\nclass = Not churn", fillcolor="#f6d5bd"] ;
12 -> 13 ;
14 [label="gini = 0.0\nsamples = 3\nvalue = [3, 0]\nclass = Not churn", fillcolor="#e58139"] ;
13 -> 14 ;
15 [label="gini = 0.0\nsamples = 2\nvalue = [0, 2]\nclass = Churn", fillcolor="#399de5"] ;
13 -> 15 ;
16 [label="gini = 0.0\nsamples = 8\nvalue = [8, 0]\nclass = Not churn", fillcolor="#e58139"] ;
12 -> 16 ;
17 [label="index <= 0.2\ngini = 0.5\nsamples = 27\nvalue = [15, 12]\nclass = Not churn", fillcolor="#fae6d7"] ;
11 -> 17 ;
18 [label="index <= -1.7\ngini = 0.4\nsamples = 16\nvalue = [11, 5]\nclass = Not churn", fillcolor="#f1ba93"] ;
17 -> 18 ;
19 [label="gini = 0.0\nsamples = 1\nvalue = [0, 1]\nclass = Churn", fillcolor="#399de5"] ;
18 -> 19 ;
20 [label="index <= -0.1\ngini = 0.4\nsamples = 15\nvalue = [11, 4]\nclass = Not churn", fillcolor="#eeaf81"] ;
18 -> 20 ;
21 [label="index <= -0.9\ngini = 0.4\nsamples = 12\nvalue = [8, 4]\nclass = Not churn", fillcolor="#f2c09c"] ;
20 -> 21 ;
22 [label="TotalCharges <= -1.0\ngini = 0.2\nsamples = 7\nvalue = [6, 1]\nclass = Not churn", fillcolor="#e9965a"] ;
21 -> 22 ;
23 [label="index <= -1.2\ngini = 0.5\nsamples = 2\nvalue = [1, 1]\nclass = Not churn", fillcolor="#ffffff"] ;
22 -> 23 ;
24 [label="gini = 0.0\nsamples = 1\nvalue = [0, 1]\nclass = Churn", fillcolor="#399de5"] ;
23 -> 24 ;
25 [label="gini = 0.0\nsamples = 1\nvalue = [1, 0]\nclass = Not churn", fillcolor="#e58139"] ;
23 -> 25 ;
26 [label="gini = 0.0\nsamples = 5\nvalue = [5, 0]\nclass = Not churn", fillcolor="#e58139"] ;
22 -> 26 ;
27 [label="TotalCharges <= -1.0\ngini = 0.5\nsamples = 5\nvalue = [2, 3]\nclass = Churn", fillcolor="#bddef6"] ;
21 -> 27 ;
28 [label="gini = 0.0\nsamples = 1\nvalue = [1, 0]\nclass = Not churn", fillcolor="#e58139"] ;
27 -> 28 ;
29 [label="MonthlyCharges <= -1.5\ngini = 0.4\nsamples = 4\nvalue = [1, 3]\nclass = Churn", fillcolor="#7bbeee"] ;
27 -> 29 ;
30 [label="gini = 0.0\nsamples = 3\nvalue = [0, 3]\nclass = Churn", fillcolor="#399de5"] ;
29 -> 30 ;
31 [label="gini = 0.0\nsamples = 1\nvalue = [1, 0]\nclass = Not churn", fillcolor="#e58139"] ;
29 -> 31 ;
32 [label="gini = 0.0\nsamples = 3\nvalue = [3, 0]\nclass = Not churn", fillcolor="#e58139"] ;
20 -> 32 ;
33 [label="index <= 1.1\ngini = 0.5\nsamples = 11\nvalue = [4, 7]\nclass = Churn", fillcolor="#aad5f4"] ;
17 -> 33 ;
34 [label="MonthlyCharges <= -1.5\ngini = 0.2\nsamples = 7\nvalue = [1, 6]\nclass = Churn", fillcolor="#5aade9"] ;
33 -> 34 ;
35 [label="gini = 0.0\nsamples = 5\nvalue = [0, 5]\nclass = Churn", fillcolor="#399de5"] ;
34 -> 35 ;
36 [label="TotalCharges <= -1.0\ngini = 0.5\nsamples = 2\nvalue = [1, 1]\nclass = Not churn", fillcolor="#ffffff"] ;
34 -> 36 ;
37 [label="gini = 0.0\nsamples = 1\nvalue = [1, 0]\nclass = Not churn", fillcolor="#e58139"] ;
36 -> 37 ;
38 [label="gini = 0.0\nsamples = 1\nvalue = [0, 1]\nclass = Churn", fillcolor="#399de5"] ;
36 -> 38 ;
39 [label="TotalCharges <= -1.0\ngini = 0.4\nsamples = 4\nvalue = [3, 1]\nclass = Not churn", fillcolor="#eeab7b"] ;
33 -> 39 ;
40 [label="gini = 0.0\nsamples = 2\nvalue = [2, 0]\nclass = Not churn", fillcolor="#e58139"] ;
39 -> 40 ;
41 [label="index <= 1.2\ngini = 0.5\nsamples = 2\nvalue = [1, 1]\nclass = Not churn", fillcolor="#ffffff"] ;
39 -> 41 ;
42 [label="gini = 0.0\nsamples = 1\nvalue = [1, 0]\nclass = Not churn", fillcolor="#e58139"] ;
41 -> 42 ;
43 [label="gini = 0.0\nsamples = 1\nvalue = [0, 1]\nclass = Churn", fillcolor="#399de5"] ;
41 -> 43 ;
44 [label="gini = 0.0\nsamples = 7\nvalue = [7, 0]\nclass = Not churn", fillcolor="#e58139"] ;
6 -> 44 ;
45 [label="MonthlyCharges <= -1.5\ngini = 0.5\nsamples = 29\nvalue = [12, 17]\nclass = Churn", fillcolor="#c5e2f7"] ;
5 -> 45 ;
46 [label="TotalCharges <= -1.0\ngini = 0.5\nsamples = 16\nvalue = [9, 7]\nclass = Not churn", fillcolor="#f9e3d3"] ;
45 -> 46 ;
47 [label="TotalCharges <= -1.0\ngini = 0.5\nsamples = 14\nvalue = [7, 7]\nclass = Not churn", fillcolor="#ffffff"] ;
46 -> 47 ;
48 [label="MonthlyCharges <= -1.5\ngini = 0.5\nsamples = 12\nvalue = [7, 5]\nclass = Not churn", fillcolor="#f8dbc6"] ;
47 -> 48 ;
49 [label="index <= -1.3\ngini = 0.5\nsamples = 9\nvalue = [4, 5]\nclass = Churn", fillcolor="#d7ebfa"] ;
48 -> 49 ;
50 [label="gini = 0.0\nsamples = 2\nvalue = [2, 0]\nclass = Not churn", fillcolor="#e58139"] ;
49 -> 50 ;
51 [label="index <= 1.5\ngini = 0.4\nsamples = 7\nvalue = [2, 5]\nclass = Churn", fillcolor="#88c4ef"] ;
49 -> 51 ;
52 [label="index <= 0.6\ngini = 0.3\nsamples = 6\nvalue = [1, 5]\nclass = Churn", fillcolor="#61b1ea"] ;
51 -> 52 ;
53 [label="gini = 0.0\nsamples = 3\nvalue = [0, 3]\nclass = Churn", fillcolor="#399de5"] ;
52 -> 53 ;
54 [label="index <= 0.9\ngini = 0.4\nsamples = 3\nvalue = [1, 2]\nclass = Churn", fillcolor="#9ccef2"] ;
52 -> 54 ;
55 [label="gini = 0.0\nsamples = 1\nvalue = [1, 0]\nclass = Not churn", fillcolor="#e58139"] ;
54 -> 55 ;
56 [label="gini = 0.0\nsamples = 2\nvalue = [0, 2]\nclass = Churn", fillcolor="#399de5"] ;
54 -> 56 ;
57 [label="gini = 0.0\nsamples = 1\nvalue = [1, 0]\nclass = Not churn", fillcolor="#e58139"] ;
51 -> 57 ;
58 [label="gini = 0.0\nsamples = 3\nvalue = [3, 0]\nclass = Not churn", fillcolor="#e58139"] ;
48 -> 58 ;
59 [label="gini = 0.0\nsamples = 2\nvalue = [0, 2]\nclass = Churn", fillcolor="#399de5"] ;
47 -> 59 ;
60 [label="gini = 0.0\nsamples = 2\nvalue = [2, 0]\nclass = Not churn", fillcolor="#e58139"] ;
46 -> 60 ;
61 [label="MonthlyCharges <= -1.5\ngini = 0.4\nsamples = 13\nvalue = [3, 10]\nclass = Churn", fillcolor="#74baed"] ;
45 -> 61 ;
62 [label="index <= -1.6\ngini = 0.2\nsamples = 10\nvalue = [1, 9]\nclass = Churn", fillcolor="#4fa8e8"] ;
61 -> 62 ;
63 [label="gini = 0.0\nsamples = 1\nvalue = [1, 0]\nclass = Not churn", fillcolor="#e58139"] ;
62 -> 63 ;
64 [label="gini = 0.0\nsamples = 9\nvalue = [0, 9]\nclass = Churn", fillcolor="#399de5"] ;
62 -> 64 ;
65 [label="gender_Male <= 0.5\ngini = 0.4\nsamples = 3\nvalue = [2, 1]\nclass = Not churn", fillcolor="#f2c09c"] ;
61 -> 65 ;
66 [label="index <= 0.3\ngini = 0.5\nsamples = 2\nvalue = [1, 1]\nclass = Not churn", fillcolor="#ffffff"] ;
65 -> 66 ;
67 [label="gini = 0.0\nsamples = 1\nvalue = [1, 0]\nclass = Not churn", fillcolor="#e58139"] ;
66 -> 67 ;
68 [label="gini = 0.0\nsamples = 1\nvalue = [0, 1]\nclass = Churn", fillcolor="#399de5"] ;
66 -> 68 ;
69 [label="gini = 0.0\nsamples = 1\nvalue = [1, 0]\nclass = Not churn", fillcolor="#e58139"] ;
65 -> 69 ;
70 [label="MonthlyCharges <= -1.5\ngini = 0.3\nsamples = 91\nvalue = [77, 14]\nclass = Not churn", fillcolor="#ea985d"] ;
4 -> 70 ;
71 [label="TotalCharges <= -1.0\ngini = 0.4\nsamples = 25\nvalue = [18, 7]\nclass = Not churn", fillcolor="#efb286"] ;
70 -> 71 ;
72 [label="TotalCharges <= -1.0\ngini = 0.3\nsamples = 5\nvalue = [1, 4]\nclass = Churn", fillcolor="#6ab6ec"] ;
71 -> 72 ;
73 [label="gini = 0.0\nsamples = 1\nvalue = [1, 0]\nclass = Not churn", fillcolor="#e58139"] ;
72 -> 73 ;
74 [label="gini = 0.0\nsamples = 4\nvalue = [0, 4]\nclass = Churn", fillcolor="#399de5"] ;
72 -> 74 ;
75 [label="MonthlyCharges <= -1.5\ngini = 0.3\nsamples = 20\nvalue = [17, 3]\nclass = Not churn", fillcolor="#ea975c"] ;
71 -> 75 ;
76 [label="gini = 0.0\nsamples = 14\nvalue = [14, 0]\nclass = Not churn", fillcolor="#e58139"] ;
75 -> 76 ;
77 [label="TotalCharges <= -1.0\ngini = 0.5\nsamples = 6\nvalue = [3, 3]\nclass = Not churn", fillcolor="#ffffff"] ;
75 -> 77 ;
78 [label="gini = 0.0\nsamples = 3\nvalue = [3, 0]\nclass = Not churn", fillcolor="#e58139"] ;
77 -> 78 ;
79 [label="gini = 0.0\nsamples = 3\nvalue = [0, 3]\nclass = Churn", fillcolor="#399de5"] ;
77 -> 79 ;
80 [label="MonthlyCharges <= -1.5\ngini = 0.2\nsamples = 66\nvalue = [59, 7]\nclass = Not churn", fillcolor="#e89050"] ;
70 -> 80 ;
81 [label="index <= 1.3\ngini = 0.1\nsamples = 44\nvalue = [42, 2]\nclass = Not churn", fillcolor="#e68742"] ;
80 -> 81 ;
82 [label="gini = 0.0\nsamples = 36\nvalue = [36, 0]\nclass = Not churn", fillcolor="#e58139"] ;
81 -> 82 ;
83 [label="index <= 1.4\ngini = 0.4\nsamples = 8\nvalue = [6, 2]\nclass = Not churn", fillcolor="#eeab7b"] ;
81 -> 83 ;
84 [label="Dependents_Yes <= 0.5\ngini = 0.4\nsamples = 3\nvalue = [1, 2]\nclass = Churn", fillcolor="#9ccef2"] ;
83 -> 84 ;
85 [label="gini = 0.0\nsamples = 2\nvalue = [0, 2]\nclass = Churn", fillcolor="#399de5"] ;
84 -> 85 ;
86 [label="gini = 0.0\nsamples = 1\nvalue = [1, 0]\nclass = Not churn", fillcolor="#e58139"] ;
84 -> 86 ;
87 [label="gini = 0.0\nsamples = 5\nvalue = [5, 0]\nclass = Not churn", fillcolor="#e58139"] ;
83 -> 87 ;
88 [label="TotalCharges <= -1.0\ngini = 0.4\nsamples = 22\nvalue = [17, 5]\nclass = Not churn", fillcolor="#eda673"] ;
80 -> 88 ;
89 [label="index <= -0.1\ngini = 0.5\nsamples = 5\nvalue = [2, 3]\nclass = Churn", fillcolor="#bddef6"] ;
88 -> 89 ;
90 [label="gini = 0.0\nsamples = 2\nvalue = [0, 2]\nclass = Churn", fillcolor="#399de5"] ;
89 -> 90 ;
91 [label="Dependents_Yes <= 0.5\ngini = 0.4\nsamples = 3\nvalue = [2, 1]\nclass = Not churn", fillcolor="#f2c09c"] ;
89 -> 91 ;
92 [label="gini = 0.0\nsamples = 2\nvalue = [2, 0]\nclass = Not churn", fillcolor="#e58139"] ;
91 -> 92 ;
93 [label="gini = 0.0\nsamples = 1\nvalue = [0, 1]\nclass = Churn", fillcolor="#399de5"] ;
91 -> 93 ;
94 [label="TotalCharges <= -1.0\ngini = 0.2\nsamples = 17\nvalue = [15, 2]\nclass = Not churn", fillcolor="#e89253"] ;
88 -> 94 ;
95 [label="gini = 0.0\nsamples = 9\nvalue = [9, 0]\nclass = Not churn", fillcolor="#e58139"] ;
94 -> 95 ;
96 [label="TotalCharges <= -1.0\ngini = 0.4\nsamples = 8\nvalue = [6, 2]\nclass = Not churn", fillcolor="#eeab7b"] ;
94 -> 96 ;
97 [label="gini = 0.0\nsamples = 2\nvalue = [0, 2]\nclass = Churn", fillcolor="#399de5"] ;
96 -> 97 ;
98 [label="gini = 0.0\nsamples = 6\nvalue = [6, 0]\nclass = Not churn", fillcolor="#e58139"] ;
96 -> 98 ;
99 [label="SeniorCitizen_1 <= 0.5\ngini = 0.5\nsamples = 280\nvalue = [133, 147]\nclass = Churn", fillcolor="#ecf6fd"] ;
3 -> 99 ;
100 [label="index <= 1.2\ngini = 0.5\nsamples = 248\nvalue = [127, 121]\nclass = Not churn", fillcolor="#fef9f6"] ;
99 -> 100 ;
101 [label="index <= 1.0\ngini = 0.5\nsamples = 216\nvalue = [119, 97]\nclass = Not churn", fillcolor="#fae8da"] ;
100 -> 101 ;
102 [label="MonthlyCharges <= -0.3\ngini = 0.5\nsamples = 202\nvalue = [106, 96]\nclass = Not churn", fillcolor="#fdf3ec"] ;
101 -> 102 ;
103 [label="StreamingTV_Yes <= 0.5\ngini = 0.5\nsamples = 170\nvalue = [82, 88]\nclass = Churn", fillcolor="#f2f8fd"] ;
102 -> 103 ;
104 [label="PaperlessBilling_Yes <= 0.5\ngini = 0.5\nsamples = 161\nvalue = [81, 80]\nclass = Not churn", fillcolor="#fffdfd"] ;
103 -> 104 ;
105 [label="TotalCharges <= -1.0\ngini = 0.5\nsamples = 78\nvalue = [47, 31]\nclass = Not churn", fillcolor="#f6d4bc"] ;
104 -> 105 ;
106 [label="MonthlyCharges <= -0.7\ngini = 0.5\nsamples = 63\nvalue = [34, 29]\nclass = Not churn", fillcolor="#fbece2"] ;
105 -> 106 ;
107 [label="TotalCharges <= -1.0\ngini = 0.5\nsamples = 34\nvalue = [22, 12]\nclass = Not churn", fillcolor="#f3c6a5"] ;
106 -> 107 ;
108 [label="index <= 0.5\ngini = 0.4\nsamples = 10\nvalue = [3, 7]\nclass = Churn", fillcolor="#8ec7f0"] ;
107 -> 108 ;
109 [label="index <= -0.6\ngini = 0.3\nsamples = 9\nvalue = [2, 7]\nclass = Churn", fillcolor="#72b9ec"] ;
108 -> 109 ;
110 [label="PaymentMethod_Mailed check <= 0.5\ngini = 0.5\nsamples = 4\nvalue = [2, 2]\nclass = Not churn", fillcolor="#ffffff"] ;
109 -> 110 ;
111 [label="gini = 0.0\nsamples = 2\nvalue = [0, 2]\nclass = Churn", fillcolor="#399de5"] ;
110 -> 111 ;
112 [label="gini = 0.0\nsamples = 2\nvalue = [2, 0]\nclass = Not churn", fillcolor="#e58139"] ;
110 -> 112 ;
113 [label="gini = 0.0\nsamples = 5\nvalue = [0, 5]\nclass = Churn", fillcolor="#399de5"] ;
109 -> 113 ;
114 [label="gini = 0.0\nsamples = 1\nvalue = [1, 0]\nclass = Not churn", fillcolor="#e58139"] ;
108 -> 114 ;
115 [label="OnlineBackup_Yes <= 0.5\ngini = 0.3\nsamples = 24\nvalue = [19, 5]\nclass = Not churn", fillcolor="#eca26d"] ;
107 -> 115 ;
116 [label="StreamingMovies_Yes <= 0.5\ngini = 0.2\nsamples = 22\nvalue = [19, 3]\nclass = Not churn", fillcolor="#e99558"] ;
115 -> 116 ;
117 [label="index <= 0.3\ngini = 0.2\nsamples = 21\nvalue = [19, 2]\nclass = Not churn", fillcolor="#e88e4e"] ;
116 -> 117 ;
118 [label="MonthlyCharges <= -0.7\ngini = 0.1\nsamples = 19\nvalue = [18, 1]\nclass = Not churn", fillcolor="#e68844"] ;
117 -> 118 ;
119 [label="gini = 0.0\nsamples = 15\nvalue = [15, 0]\nclass = Not churn", fillcolor="#e58139"] ;
118 -> 119 ;
120 [label="index <= -1.0\ngini = 0.4\nsamples = 4\nvalue = [3, 1]\nclass = Not churn", fillcolor="#eeab7b"] ;
118 -> 120 ;
121 [label="gini = 0.0\nsamples = 1\nvalue = [0, 1]\nclass = Churn", fillcolor="#399de5"] ;
120 -> 121 ;
122 [label="gini = 0.0\nsamples = 3\nvalue = [3, 0]\nclass = Not churn", fillcolor="#e58139"] ;
120 -> 122 ;
123 [label="PaymentMethod_Electronic check <= 0.5\ngini = 0.5\nsamples = 2\nvalue = [1, 1]\nclass = Not churn", fillcolor="#ffffff"] ;
117 -> 123 ;
124 [label="gini = 0.0\nsamples = 1\nvalue = [1, 0]\nclass = Not churn", fillcolor="#e58139"] ;
123 -> 124 ;
125 [label="gini = 0.0\nsamples = 1\nvalue = [0, 1]\nclass = Churn", fillcolor="#399de5"] ;
123 -> 125 ;
126 [label="gini = 0.0\nsamples = 1\nvalue = [0, 1]\nclass = Churn", fillcolor="#399de5"] ;
116 -> 126 ;
127 [label="gini = 0.0\nsamples = 2\nvalue = [0, 2]\nclass = Churn", fillcolor="#399de5"] ;
115 -> 127 ;
128 [label="OnlineSecurity_Yes <= 0.5\ngini = 0.5\nsamples = 29\nvalue = [12, 17]\nclass = Churn", fillcolor="#c5e2f7"] ;
106 -> 128 ;
129 [label="index <= 0.2\ngini = 0.4\nsamples = 22\nvalue = [6, 16]\nclass = Churn", fillcolor="#83c2ef"] ;
128 -> 129 ;
130 [label="index <= -1.4\ngini = 0.3\nsamples = 17\nvalue = [3, 14]\nclass = Churn", fillcolor="#63b2eb"] ;
129 -> 130 ;
131 [label="index <= -1.5\ngini = 0.4\nsamples = 3\nvalue = [2, 1]\nclass = Not churn", fillcolor="#f2c09c"] ;
130 -> 131 ;
132 [label="gini = 0.0\nsamples = 1\nvalue = [0, 1]\nclass = Churn", fillcolor="#399de5"] ;
131 -> 132 ;
133 [label="gini = 0.0\nsamples = 2\nvalue = [2, 0]\nclass = Not churn", fillcolor="#e58139"] ;
131 -> 133 ;
134 [label="OnlineBackup_Yes <= 0.5\ngini = 0.1\nsamples = 14\nvalue = [1, 13]\nclass = Churn", fillcolor="#48a5e7"] ;
130 -> 134 ;
135 [label="gini = 0.0\nsamples = 11\nvalue = [0, 11]\nclass = Churn", fillcolor="#399de5"] ;
134 -> 135 ;
136 [label="TotalCharges <= -1.0\ngini = 0.4\nsamples = 3\nvalue = [1, 2]\nclass = Churn", fillcolor="#9ccef2"] ;
134 -> 136 ;
137 [label="gini = 0.0\nsamples = 1\nvalue = [1, 0]\nclass = Not churn", fillcolor="#e58139"] ;
136 -> 137 ;
138 [label="gini = 0.0\nsamples = 2\nvalue = [0, 2]\nclass = Churn", fillcolor="#399de5"] ;
136 -> 138 ;
139 [label="gender_Male <= 0.5\ngini = 0.5\nsamples = 5\nvalue = [3, 2]\nclass = Not churn", fillcolor="#f6d5bd"] ;
129 -> 139 ;
140 [label="gini = 0.0\nsamples = 2\nvalue = [2, 0]\nclass = Not churn", fillcolor="#e58139"] ;
139 -> 140 ;
141 [label="PaymentMethod_Electronic check <= 0.5\ngini = 0.4\nsamples = 3\nvalue = [1, 2]\nclass = Churn", fillcolor="#9ccef2"] ;
139 -> 141 ;
142 [label="gini = 0.0\nsamples = 2\nvalue = [0, 2]\nclass = Churn", fillcolor="#399de5"] ;
141 -> 142 ;
143 [label="gini = 0.0\nsamples = 1\nvalue = [1, 0]\nclass = Not churn", fillcolor="#e58139"] ;
141 -> 143 ;
144 [label="gender_Male <= 0.5\ngini = 0.2\nsamples = 7\nvalue = [6, 1]\nclass = Not churn", fillcolor="#e9965a"] ;
128 -> 144 ;
145 [label="gini = 0.0\nsamples = 4\nvalue = [4, 0]\nclass = Not churn", fillcolor="#e58139"] ;
144 -> 145 ;
146 [label="Dependents_Yes <= 0.5\ngini = 0.4\nsamples = 3\nvalue = [2, 1]\nclass = Not churn", fillcolor="#f2c09c"] ;
144 -> 146 ;
147 [label="gini = 0.0\nsamples = 2\nvalue = [2, 0]\nclass = Not churn", fillcolor="#e58139"] ;
146 -> 147 ;
148 [label="gini = 0.0\nsamples = 1\nvalue = [0, 1]\nclass = Churn", fillcolor="#399de5"] ;
146 -> 148 ;
149 [label="MonthlyCharges <= -0.3\ngini = 0.2\nsamples = 15\nvalue = [13, 2]\nclass = Not churn", fillcolor="#e99457"] ;
105 -> 149 ;
150 [label="Partner_Yes <= 0.5\ngini = 0.1\nsamples = 14\nvalue = [13, 1]\nclass = Not churn", fillcolor="#e78b48"] ;
149 -> 150 ;
151 [label="gini = 0.0\nsamples = 12\nvalue = [12, 0]\nclass = Not churn", fillcolor="#e58139"] ;
150 -> 151 ;
152 [label="OnlineBackup_Yes <= 0.5\ngini = 0.5\nsamples = 2\nvalue = [1, 1]\nclass = Not churn", fillcolor="#ffffff"] ;
150 -> 152 ;
153 [label="gini = 0.0\nsamples = 1\nvalue = [0, 1]\nclass = Churn", fillcolor="#399de5"] ;
152 -> 153 ;
154 [label="gini = 0.0\nsamples = 1\nvalue = [1, 0]\nclass = Not churn", fillcolor="#e58139"] ;
152 -> 154 ;
155 [label="gini = 0.0\nsamples = 1\nvalue = [0, 1]\nclass = Churn", fillcolor="#399de5"] ;
149 -> 155 ;
156 [label="index <= -0.0\ngini = 0.5\nsamples = 83\nvalue = [34, 49]\nclass = Churn", fillcolor="#c2e1f7"] ;
104 -> 156 ;
157 [label="MonthlyCharges <= -0.4\ngini = 0.5\nsamples = 57\nvalue = [27, 30]\nclass = Churn", fillcolor="#ebf5fc"] ;
156 -> 157 ;
158 [label="MonthlyCharges <= -0.5\ngini = 0.5\nsamples = 50\nvalue = [26, 24]\nclass = Not churn", fillcolor="#fdf5f0"] ;
157 -> 158 ;
159 [label="MonthlyCharges <= -0.7\ngini = 0.5\nsamples = 37\nvalue = [16, 21]\nclass = Churn", fillcolor="#d0e8f9"] ;
158 -> 159 ;
160 [label="PhoneService_Yes <= 0.5\ngini = 0.5\nsamples = 22\nvalue = [13, 9]\nclass = Not churn", fillcolor="#f7d8c2"] ;
159 -> 160 ;
161 [label="MonthlyCharges <= -1.1\ngini = 0.4\nsamples = 9\nvalue = [3, 6]\nclass = Churn", fillcolor="#9ccef2"] ;
160 -> 161 ;
162 [label="TotalCharges <= -1.0\ngini = 0.5\nsamples = 5\nvalue = [3, 2]\nclass = Not churn", fillcolor="#f6d5bd"] ;
161 -> 162 ;
163 [label="index <= -0.2\ngini = 0.4\nsamples = 3\nvalue = [1, 2]\nclass = Churn", fillcolor="#9ccef2"] ;
162 -> 163 ;
164 [label="gini = 0.0\nsamples = 2\nvalue = [0, 2]\nclass = Churn", fillcolor="#399de5"] ;
163 -> 164 ;
165 [label="gini = 0.0\nsamples = 1\nvalue = [1, 0]\nclass = Not churn", fillcolor="#e58139"] ;
163 -> 165 ;
166 [label="gini = 0.0\nsamples = 2\nvalue = [2, 0]\nclass = Not churn", fillcolor="#e58139"] ;
162 -> 166 ;
167 [label="gini = 0.0\nsamples = 4\nvalue = [0, 4]\nclass = Churn", fillcolor="#399de5"] ;
161 -> 167 ;
168 [label="MonthlyCharges <= -1.4\ngini = 0.4\nsamples = 13\nvalue = [10, 3]\nclass = Not churn", fillcolor="#eda774"] ;
160 -> 168 ;
169 [label="gini = 0.0\nsamples = 1\nvalue = [0, 1]\nclass = Churn", fillcolor="#399de5"] ;
168 -> 169 ;
170 [label="PaymentMethod_Mailed check <= 0.5\ngini = 0.3\nsamples = 12\nvalue = [10, 2]\nclass = Not churn", fillcolor="#ea9a61"] ;
168 -> 170 ;
171 [label="gini = 0.0\nsamples = 6\nvalue = [6, 0]\nclass = Not churn", fillcolor="#e58139"] ;
170 -> 171 ;
172 [label="MonthlyCharges <= -0.7\ngini = 0.4\nsamples = 6\nvalue = [4, 2]\nclass = Not churn", fillcolor="#f2c09c"] ;
170 -> 172 ;
173 [label="TotalCharges <= -1.0\ngini = 0.3\nsamples = 5\nvalue = [4, 1]\nclass = Not churn", fillcolor="#eca06a"] ;
172 -> 173 ;
174 [label="gini = 0.0\nsamples = 1\nvalue = [0, 1]\nclass = Churn", fillcolor="#399de5"] ;
173 -> 174 ;
175 [label="gini = 0.0\nsamples = 4\nvalue = [4, 0]\nclass = Not churn", fillcolor="#e58139"] ;
173 -> 175 ;
176 [label="gini = 0.0\nsamples = 1\nvalue = [0, 1]\nclass = Churn", fillcolor="#399de5"] ;
172 -> 176 ;
177 [label="TechSupport_Yes <= 0.5\ngini = 0.3\nsamples = 15\nvalue = [3, 12]\nclass = Churn", fillcolor="#6ab6ec"] ;
159 -> 177 ;
178 [label="index <= -0.3\ngini = 0.2\nsamples = 14\nvalue = [2, 12]\nclass = Churn", fillcolor="#5aade9"] ;
177 -> 178 ;
179 [label="MonthlyCharges <= -0.6\ngini = 0.2\nsamples = 12\nvalue = [1, 11]\nclass = Churn", fillcolor="#4ba6e7"] ;
178 -> 179 ;
180 [label="index <= -0.8\ngini = 0.4\nsamples = 3\nvalue = [1, 2]\nclass = Churn", fillcolor="#9ccef2"] ;
179 -> 180 ;
181 [label="gini = 0.0\nsamples = 1\nvalue = [1, 0]\nclass = Not churn", fillcolor="#e58139"] ;
180 -> 181 ;
182 [label="gini = 0.0\nsamples = 2\nvalue = [0, 2]\nclass = Churn", fillcolor="#399de5"] ;
180 -> 182 ;
183 [label="gini = 0.0\nsamples = 9\nvalue = [0, 9]\nclass = Churn", fillcolor="#399de5"] ;
179 -> 183 ;
184 [label="MonthlyCharges <= -0.6\ngini = 0.5\nsamples = 2\nvalue = [1, 1]\nclass = Not churn", fillcolor="#ffffff"] ;
178 -> 184 ;
185 [label="gini = 0.0\nsamples = 1\nvalue = [0, 1]\nclass = Churn", fillcolor="#399de5"] ;
184 -> 185 ;
186 [label="gini = 0.0\nsamples = 1\nvalue = [1, 0]\nclass = Not churn", fillcolor="#e58139"] ;
184 -> 186 ;
187 [label="gini = 0.0\nsamples = 1\nvalue = [1, 0]\nclass = Not churn", fillcolor="#e58139"] ;
177 -> 187 ;
188 [label="Partner_Yes <= 0.5\ngini = 0.4\nsamples = 13\nvalue = [10, 3]\nclass = Not churn", fillcolor="#eda774"] ;
158 -> 188 ;
189 [label="MultipleLines_Yes <= 0.5\ngini = 0.3\nsamples = 12\nvalue = [10, 2]\nclass = Not churn", fillcolor="#ea9a61"] ;
188 -> 189 ;
190 [label="gini = 0.0\nsamples = 8\nvalue = [8, 0]\nclass = Not churn", fillcolor="#e58139"] ;
189 -> 190 ;
191 [label="index <= -1.0\ngini = 0.5\nsamples = 4\nvalue = [2, 2]\nclass = Not churn", fillcolor="#ffffff"] ;
189 -> 191 ;
192 [label="gini = 0.0\nsamples = 2\nvalue = [0, 2]\nclass = Churn", fillcolor="#399de5"] ;
191 -> 192 ;
193 [label="gini = 0.0\nsamples = 2\nvalue = [2, 0]\nclass = Not churn", fillcolor="#e58139"] ;
191 -> 193 ;
194 [label="gini = 0.0\nsamples = 1\nvalue = [0, 1]\nclass = Churn", fillcolor="#399de5"] ;
188 -> 194 ;
195 [label="index <= -0.2\ngini = 0.2\nsamples = 7\nvalue = [1, 6]\nclass = Churn", fillcolor="#5aade9"] ;
157 -> 195 ;
196 [label="gini = 0.0\nsamples = 6\nvalue = [0, 6]\nclass = Churn", fillcolor="#399de5"] ;
195 -> 196 ;
197 [label="gini = 0.0\nsamples = 1\nvalue = [1, 0]\nclass = Not churn", fillcolor="#e58139"] ;
195 -> 197 ;
198 [label="PaymentMethod_Electronic check <= 0.5\ngini = 0.4\nsamples = 26\nvalue = [7, 19]\nclass = Churn", fillcolor="#82c1ef"] ;
156 -> 198 ;
199 [label="MonthlyCharges <= -0.7\ngini = 0.5\nsamples = 17\nvalue = [7, 10]\nclass = Churn", fillcolor="#c4e2f7"] ;
198 -> 199 ;
200 [label="StreamingTV_No internet service <= 0.5\ngini = 0.2\nsamples = 7\nvalue = [1, 6]\nclass = Churn", fillcolor="#5aade9"] ;
199 -> 200 ;
201 [label="gini = 0.0\nsamples = 5\nvalue = [0, 5]\nclass = Churn", fillcolor="#399de5"] ;
200 -> 201 ;
202 [label="TotalCharges <= -1.0\ngini = 0.5\nsamples = 2\nvalue = [1, 1]\nclass = Not churn", fillcolor="#ffffff"] ;
200 -> 202 ;
203 [label="gini = 0.0\nsamples = 1\nvalue = [0, 1]\nclass = Churn", fillcolor="#399de5"] ;
202 -> 203 ;
204 [label="gini = 0.0\nsamples = 1\nvalue = [1, 0]\nclass = Not churn", fillcolor="#e58139"] ;
202 -> 204 ;
205 [label="MonthlyCharges <= -0.5\ngini = 0.5\nsamples = 10\nvalue = [6, 4]\nclass = Not churn", fillcolor="#f6d5bd"] ;
199 -> 205 ;
206 [label="gini = 0.0\nsamples = 4\nvalue = [4, 0]\nclass = Not churn", fillcolor="#e58139"] ;
205 -> 206 ;
207 [label="MonthlyCharges <= -0.5\ngini = 0.4\nsamples = 6\nvalue = [2, 4]\nclass = Churn", fillcolor="#9ccef2"] ;
205 -> 207 ;
208 [label="gini = 0.0\nsamples = 4\nvalue = [0, 4]\nclass = Churn", fillcolor="#399de5"] ;
207 -> 208 ;
209 [label="gini = 0.0\nsamples = 2\nvalue = [2, 0]\nclass = Not churn", fillcolor="#e58139"] ;
207 -> 209 ;
210 [label="gini = 0.0\nsamples = 9\nvalue = [0, 9]\nclass = Churn", fillcolor="#399de5"] ;
198 -> 210 ;
211 [label="MonthlyCharges <= -0.3\ngini = 0.2\nsamples = 9\nvalue = [1, 8]\nclass = Churn", fillcolor="#52a9e8"] ;
103 -> 211 ;
212 [label="gini = 0.0\nsamples = 8\nvalue = [0, 8]\nclass = Churn", fillcolor="#399de5"] ;
211 -> 212 ;
213 [label="gini = 0.0\nsamples = 1\nvalue = [1, 0]\nclass = Not churn", fillcolor="#e58139"] ;
211 -> 213 ;
214 [label="index <= 0.6\ngini = 0.4\nsamples = 32\nvalue = [24, 8]\nclass = Not churn", fillcolor="#eeab7b"] ;
102 -> 214 ;
215 [label="TotalCharges <= -1.0\ngini = 0.3\nsamples = 26\nvalue = [22, 4]\nclass = Not churn", fillcolor="#ea985d"] ;
214 -> 215 ;
216 [label="MonthlyCharges <= -0.2\ngini = 0.5\nsamples = 6\nvalue = [3, 3]\nclass = Not churn", fillcolor="#ffffff"] ;
215 -> 216 ;
217 [label="gini = 0.0\nsamples = 2\nvalue = [2, 0]\nclass = Not churn", fillcolor="#e58139"] ;
216 -> 217 ;
218 [label="PaymentMethod_Mailed check <= 0.5\ngini = 0.4\nsamples = 4\nvalue = [1, 3]\nclass = Churn", fillcolor="#7bbeee"] ;
216 -> 218 ;
219 [label="gini = 0.0\nsamples = 3\nvalue = [0, 3]\nclass = Churn", fillcolor="#399de5"] ;
218 -> 219 ;
220 [label="gini = 0.0\nsamples = 1\nvalue = [1, 0]\nclass = Not churn", fillcolor="#e58139"] ;
218 -> 220 ;
221 [label="index <= 0.1\ngini = 0.1\nsamples = 20\nvalue = [19, 1]\nclass = Not churn", fillcolor="#e68843"] ;
215 -> 221 ;
222 [label="gini = 0.0\nsamples = 17\nvalue = [17, 0]\nclass = Not churn", fillcolor="#e58139"] ;
221 -> 222 ;
223 [label="StreamingTV_Yes <= 0.5\ngini = 0.4\nsamples = 3\nvalue = [2, 1]\nclass = Not churn", fillcolor="#f2c09c"] ;
221 -> 223 ;
224 [label="gini = 0.0\nsamples = 2\nvalue = [2, 0]\nclass = Not churn", fillcolor="#e58139"] ;
223 -> 224 ;
225 [label="gini = 0.0\nsamples = 1\nvalue = [0, 1]\nclass = Churn", fillcolor="#399de5"] ;
223 -> 225 ;
226 [label="index <= 0.8\ngini = 0.4\nsamples = 6\nvalue = [2, 4]\nclass = Churn", fillcolor="#9ccef2"] ;
214 -> 226 ;
227 [label="gini = 0.0\nsamples = 3\nvalue = [0, 3]\nclass = Churn", fillcolor="#399de5"] ;
226 -> 227 ;
228 [label="PaymentMethod_Electronic check <= 0.5\ngini = 0.4\nsamples = 3\nvalue = [2, 1]\nclass = Not churn", fillcolor="#f2c09c"] ;
226 -> 228 ;
229 [label="gini = 0.0\nsamples = 2\nvalue = [2, 0]\nclass = Not churn", fillcolor="#e58139"] ;
228 -> 229 ;
230 [label="gini = 0.0\nsamples = 1\nvalue = [0, 1]\nclass = Churn", fillcolor="#399de5"] ;
228 -> 230 ;
231 [label="OnlineBackup_Yes <= 0.5\ngini = 0.1\nsamples = 14\nvalue = [13, 1]\nclass = Not churn", fillcolor="#e78b48"] ;
101 -> 231 ;
232 [label="gini = 0.0\nsamples = 11\nvalue = [11, 0]\nclass = Not churn", fillcolor="#e58139"] ;
231 -> 232 ;
233 [label="gender_Male <= 0.5\ngini = 0.4\nsamples = 3\nvalue = [2, 1]\nclass = Not churn", fillcolor="#f2c09c"] ;
231 -> 233 ;
234 [label="gini = 0.0\nsamples = 2\nvalue = [2, 0]\nclass = Not churn", fillcolor="#e58139"] ;
233 -> 234 ;
235 [label="gini = 0.0\nsamples = 1\nvalue = [0, 1]\nclass = Churn", fillcolor="#399de5"] ;
233 -> 235 ;
236 [label="MonthlyCharges <= -1.3\ngini = 0.4\nsamples = 32\nvalue = [8, 24]\nclass = Churn", fillcolor="#7bbeee"] ;
100 -> 236 ;
237 [label="gini = 0.0\nsamples = 1\nvalue = [1, 0]\nclass = Not churn", fillcolor="#e58139"] ;
236 -> 237 ;
238 [label="MonthlyCharges <= -0.0\ngini = 0.3\nsamples = 31\nvalue = [7, 24]\nclass = Churn", fillcolor="#73baed"] ;
236 -> 238 ;
239 [label="Contract_One year <= 0.5\ngini = 0.3\nsamples = 30\nvalue = [6, 24]\nclass = Churn", fillcolor="#6ab6ec"] ;
238 -> 239 ;
240 [label="Partner_Yes <= 0.5\ngini = 0.3\nsamples = 29\nvalue = [5, 24]\nclass = Churn", fillcolor="#62b1ea"] ;
239 -> 240 ;
241 [label="PaymentMethod_Credit card (automatic) <= 0.5\ngini = 0.2\nsamples = 22\nvalue = [2, 20]\nclass = Churn", fillcolor="#4da7e8"] ;
240 -> 241 ;
242 [label="MultipleLines_Yes <= 0.5\ngini = 0.1\nsamples = 20\nvalue = [1, 19]\nclass = Churn", fillcolor="#43a2e6"] ;
241 -> 242 ;
243 [label="gini = 0.0\nsamples = 18\nvalue = [0, 18]\nclass = Churn", fillcolor="#399de5"] ;
242 -> 243 ;
244 [label="TotalCharges <= -1.0\ngini = 0.5\nsamples = 2\nvalue = [1, 1]\nclass = Not churn", fillcolor="#ffffff"] ;
242 -> 244 ;
245 [label="gini = 0.0\nsamples = 1\nvalue = [1, 0]\nclass = Not churn", fillcolor="#e58139"] ;
244 -> 245 ;
246 [label="gini = 0.0\nsamples = 1\nvalue = [0, 1]\nclass = Churn", fillcolor="#399de5"] ;
244 -> 246 ;
247 [label="StreamingTV_Yes <= 0.5\ngini = 0.5\nsamples = 2\nvalue = [1, 1]\nclass = Not churn", fillcolor="#ffffff"] ;
241 -> 247 ;
248 [label="gini = 0.0\nsamples = 1\nvalue = [1, 0]\nclass = Not churn", fillcolor="#e58139"] ;
247 -> 248 ;
249 [label="gini = 0.0\nsamples = 1\nvalue = [0, 1]\nclass = Churn", fillcolor="#399de5"] ;
247 -> 249 ;
250 [label="PaperlessBilling_Yes <= 0.5\ngini = 0.5\nsamples = 7\nvalue = [3, 4]\nclass = Churn", fillcolor="#cee6f8"] ;
240 -> 250 ;
251 [label="gini = 0.0\nsamples = 3\nvalue = [0, 3]\nclass = Churn", fillcolor="#399de5"] ;
250 -> 251 ;
252 [label="TotalCharges <= -1.0\ngini = 0.4\nsamples = 4\nvalue = [3, 1]\nclass = Not churn", fillcolor="#eeab7b"] ;
250 -> 252 ;
253 [label="gini = 0.0\nsamples = 3\nvalue = [3, 0]\nclass = Not churn", fillcolor="#e58139"] ;
252 -> 253 ;
254 [label="gini = 0.0\nsamples = 1\nvalue = [0, 1]\nclass = Churn", fillcolor="#399de5"] ;
252 -> 254 ;
255 [label="gini = 0.0\nsamples = 1\nvalue = [1, 0]\nclass = Not churn", fillcolor="#e58139"] ;
239 -> 255 ;
256 [label="gini = 0.0\nsamples = 1\nvalue = [1, 0]\nclass = Not churn", fillcolor="#e58139"] ;
238 -> 256 ;
257 [label="MultipleLines_Yes <= 0.5\ngini = 0.3\nsamples = 32\nvalue = [6, 26]\nclass = Churn", fillcolor="#67b4eb"] ;
99 -> 257 ;
258 [label="index <= -1.7\ngini = 0.3\nsamples = 31\nvalue = [5, 26]\nclass = Churn", fillcolor="#5fb0ea"] ;
257 -> 258 ;
259 [label="gini = 0.0\nsamples = 1\nvalue = [1, 0]\nclass = Not churn", fillcolor="#e58139"] ;
258 -> 259 ;
260 [label="index <= 1.6\ngini = 0.2\nsamples = 30\nvalue = [4, 26]\nclass = Churn", fillcolor="#57ace9"] ;
258 -> 260 ;
261 [label="TotalCharges <= -1.0\ngini = 0.2\nsamples = 29\nvalue = [3, 26]\nclass = Churn", fillcolor="#50a8e8"] ;
260 -> 261 ;
262 [label="gini = 0.0\nsamples = 11\nvalue = [0, 11]\nclass = Churn", fillcolor="#399de5"] ;
261 -> 262 ;
263 [label="TotalCharges <= -1.0\ngini = 0.3\nsamples = 18\nvalue = [3, 15]\nclass = Churn", fillcolor="#61b1ea"] ;
261 -> 263 ;
264 [label="gini = 0.0\nsamples = 1\nvalue = [1, 0]\nclass = Not churn", fillcolor="#e58139"] ;
263 -> 264 ;
265 [label="MonthlyCharges <= -0.7\ngini = 0.2\nsamples = 17\nvalue = [2, 15]\nclass = Churn", fillcolor="#53aae8"] ;
263 -> 265 ;
266 [label="gender_Male <= 0.5\ngini = 0.4\nsamples = 7\nvalue = [2, 5]\nclass = Churn", fillcolor="#88c4ef"] ;
265 -> 266 ;
267 [label="TotalCharges <= -1.0\ngini = 0.4\nsamples = 3\nvalue = [2, 1]\nclass = Not churn", fillcolor="#f2c09c"] ;
266 -> 267 ;
268 [label="gini = 0.0\nsamples = 1\nvalue = [0, 1]\nclass = Churn", fillcolor="#399de5"] ;
267 -> 268 ;
269 [label="gini = 0.0\nsamples = 2\nvalue = [2, 0]\nclass = Not churn", fillcolor="#e58139"] ;
267 -> 269 ;
270 [label="gini = 0.0\nsamples = 4\nvalue = [0, 4]\nclass = Churn", fillcolor="#399de5"] ;
266 -> 270 ;
271 [label="gini = 0.0\nsamples = 10\nvalue = [0, 10]\nclass = Churn", fillcolor="#399de5"] ;
265 -> 271 ;
272 [label="gini = 0.0\nsamples = 1\nvalue = [1, 0]\nclass = Not churn", fillcolor="#e58139"] ;
260 -> 272 ;
273 [label="gini = 0.0\nsamples = 1\nvalue = [1, 0]\nclass = Not churn", fillcolor="#e58139"] ;
257 -> 273 ;
274 [label="OnlineBackup_No internet service <= 0.5\ngini = 0.3\nsamples = 739\nvalue = [602, 137]\nclass = Not churn", fillcolor="#eb9e66"] ;
2 -> 274 ;
275 [label="TotalCharges <= -0.9\ngini = 0.4\nsamples = 445\nvalue = [332, 113]\nclass = Not churn", fillcolor="#eeac7c"] ;
274 -> 275 ;
276 [label="index <= -0.8\ngini = 0.5\nsamples = 110\nvalue = [66, 44]\nclass = Not churn", fillcolor="#f6d5bd"] ;
275 -> 276 ;
277 [label="MonthlyCharges <= 0.2\ngini = 0.2\nsamples = 21\nvalue = [18, 3]\nclass = Not churn", fillcolor="#e9965a"] ;
276 -> 277 ;
278 [label="index <= -1.6\ngini = 0.2\nsamples = 20\nvalue = [18, 2]\nclass = Not churn", fillcolor="#e88f4f"] ;
277 -> 278 ;
279 [label="gini = 0.0\nsamples = 1\nvalue = [0, 1]\nclass = Churn", fillcolor="#399de5"] ;
278 -> 279 ;
280 [label="TotalCharges <= -0.9\ngini = 0.1\nsamples = 19\nvalue = [18, 1]\nclass = Not churn", fillcolor="#e68844"] ;
278 -> 280 ;
281 [label="gini = 0.0\nsamples = 1\nvalue = [0, 1]\nclass = Churn", fillcolor="#399de5"] ;
280 -> 281 ;
282 [label="gini = 0.0\nsamples = 18\nvalue = [18, 0]\nclass = Not churn", fillcolor="#e58139"] ;
280 -> 282 ;
283 [label="gini = 0.0\nsamples = 1\nvalue = [0, 1]\nclass = Churn", fillcolor="#399de5"] ;
277 -> 283 ;
284 [label="MonthlyCharges <= -0.3\ngini = 0.5\nsamples = 89\nvalue = [48, 41]\nclass = Not churn", fillcolor="#fbede2"] ;
276 -> 284 ;
285 [label="TotalCharges <= -0.9\ngini = 0.5\nsamples = 73\nvalue = [35, 38]\nclass = Churn", fillcolor="#eff7fd"] ;
284 -> 285 ;
286 [label="TotalCharges <= -1.0\ngini = 0.4\nsamples = 15\nvalue = [11, 4]\nclass = Not churn", fillcolor="#eeaf81"] ;
285 -> 286 ;
287 [label="MonthlyCharges <= -1.2\ngini = 0.4\nsamples = 4\nvalue = [1, 3]\nclass = Churn", fillcolor="#7bbeee"] ;
286 -> 287 ;
288 [label="gini = 0.0\nsamples = 3\nvalue = [0, 3]\nclass = Churn", fillcolor="#399de5"] ;
287 -> 288 ;
289 [label="gini = 0.0\nsamples = 1\nvalue = [1, 0]\nclass = Not churn", fillcolor="#e58139"] ;
287 -> 289 ;
290 [label="TotalCharges <= -0.9\ngini = 0.2\nsamples = 11\nvalue = [10, 1]\nclass = Not churn", fillcolor="#e88e4d"] ;
286 -> 290 ;
291 [label="TotalCharges <= -0.9\ngini = 0.4\nsamples = 3\nvalue = [2, 1]\nclass = Not churn", fillcolor="#f2c09c"] ;
290 -> 291 ;
292 [label="gini = 0.0\nsamples = 2\nvalue = [2, 0]\nclass = Not churn", fillcolor="#e58139"] ;
291 -> 292 ;
293 [label="gini = 0.0\nsamples = 1\nvalue = [0, 1]\nclass = Churn", fillcolor="#399de5"] ;
291 -> 293 ;
294 [label="gini = 0.0\nsamples = 8\nvalue = [8, 0]\nclass = Not churn", fillcolor="#e58139"] ;
290 -> 294 ;
295 [label="index <= -0.4\ngini = 0.5\nsamples = 58\nvalue = [24, 34]\nclass = Churn", fillcolor="#c5e2f7"] ;
285 -> 295 ;
296 [label="gini = 0.0\nsamples = 6\nvalue = [0, 6]\nclass = Churn", fillcolor="#399de5"] ;
295 -> 296 ;
297 [label="index <= -0.3\ngini = 0.5\nsamples = 52\nvalue = [24, 28]\nclass = Churn", fillcolor="#e3f1fb"] ;
295 -> 297 ;
298 [label="MonthlyCharges <= -1.3\ngini = 0.3\nsamples = 6\nvalue = [5, 1]\nclass = Not churn", fillcolor="#ea9a61"] ;
297 -> 298 ;
299 [label="gini = 0.0\nsamples = 1\nvalue = [0, 1]\nclass = Churn", fillcolor="#399de5"] ;
298 -> 299 ;
300 [label="gini = 0.0\nsamples = 5\nvalue = [5, 0]\nclass = Not churn", fillcolor="#e58139"] ;
298 -> 300 ;
301 [label="index <= 1.6\ngini = 0.5\nsamples = 46\nvalue = [19, 27]\nclass = Churn", fillcolor="#c4e2f7"] ;
297 -> 301 ;
302 [label="Contract_One year <= 0.5\ngini = 0.5\nsamples = 43\nvalue = [16, 27]\nclass = Churn", fillcolor="#aed7f4"] ;
301 -> 302 ;
303 [label="OnlineBackup_Yes <= 0.5\ngini = 0.4\nsamples = 41\nvalue = [14, 27]\nclass = Churn", fillcolor="#a0d0f2"] ;
302 -> 303 ;
304 [label="TotalCharges <= -0.9\ngini = 0.4\nsamples = 33\nvalue = [9, 24]\nclass = Churn", fillcolor="#83c2ef"] ;
303 -> 304 ;
305 [label="index <= 0.5\ngini = 0.5\nsamples = 11\nvalue = [5, 6]\nclass = Churn", fillcolor="#deeffb"] ;
304 -> 305 ;
306 [label="TotalCharges <= -0.9\ngini = 0.3\nsamples = 6\nvalue = [5, 1]\nclass = Not churn", fillcolor="#ea9a61"] ;
305 -> 306 ;
307 [label="index <= -0.0\ngini = 0.5\nsamples = 2\nvalue = [1, 1]\nclass = Not churn", fillcolor="#ffffff"] ;
306 -> 307 ;
308 [label="gini = 0.0\nsamples = 1\nvalue = [0, 1]\nclass = Churn", fillcolor="#399de5"] ;
307 -> 308 ;
309 [label="gini = 0.0\nsamples = 1\nvalue = [1, 0]\nclass = Not churn", fillcolor="#e58139"] ;
307 -> 309 ;
310 [label="gini = 0.0\nsamples = 4\nvalue = [4, 0]\nclass = Not churn", fillcolor="#e58139"] ;
306 -> 310 ;
311 [label="gini = 0.0\nsamples = 5\nvalue = [0, 5]\nclass = Churn", fillcolor="#399de5"] ;
305 -> 311 ;
312 [label="index <= 1.4\ngini = 0.3\nsamples = 22\nvalue = [4, 18]\nclass = Churn", fillcolor="#65b3eb"] ;
304 -> 312 ;
313 [label="MonthlyCharges <= -0.5\ngini = 0.2\nsamples = 21\nvalue = [3, 18]\nclass = Churn", fillcolor="#5aade9"] ;
312 -> 313 ;
314 [label="MultipleLines_No phone service <= 0.5\ngini = 0.4\nsamples = 11\nvalue = [3, 8]\nclass = Churn", fillcolor="#83c2ef"] ;
313 -> 314 ;
315 [label="TotalCharges <= -0.9\ngini = 0.4\nsamples = 4\nvalue = [3, 1]\nclass = Not churn", fillcolor="#eeab7b"] ;
314 -> 315 ;
316 [label="gini = 0.0\nsamples = 1\nvalue = [0, 1]\nclass = Churn", fillcolor="#399de5"] ;
315 -> 316 ;
317 [label="gini = 0.0\nsamples = 3\nvalue = [3, 0]\nclass = Not churn", fillcolor="#e58139"] ;
315 -> 317 ;
318 [label="gini = 0.0\nsamples = 7\nvalue = [0, 7]\nclass = Churn", fillcolor="#399de5"] ;
314 -> 318 ;
319 [label="gini = 0.0\nsamples = 10\nvalue = [0, 10]\nclass = Churn", fillcolor="#399de5"] ;
313 -> 319 ;
320 [label="gini = 0.0\nsamples = 1\nvalue = [1, 0]\nclass = Not churn", fillcolor="#e58139"] ;
312 -> 320 ;
321 [label="TotalCharges <= -0.9\ngini = 0.5\nsamples = 8\nvalue = [5, 3]\nclass = Not churn", fillcolor="#f5cdb0"] ;
303 -> 321 ;
322 [label="gini = 0.0\nsamples = 2\nvalue = [0, 2]\nclass = Churn", fillcolor="#399de5"] ;
321 -> 322 ;
323 [label="index <= 0.3\ngini = 0.3\nsamples = 6\nvalue = [5, 1]\nclass = Not churn", fillcolor="#ea9a61"] ;
321 -> 323 ;
324 [label="gini = 0.0\nsamples = 4\nvalue = [4, 0]\nclass = Not churn", fillcolor="#e58139"] ;
323 -> 324 ;
325 [label="OnlineSecurity_Yes <= 0.5\ngini = 0.5\nsamples = 2\nvalue = [1, 1]\nclass = Not churn", fillcolor="#ffffff"] ;
323 -> 325 ;
326 [label="gini = 0.0\nsamples = 1\nvalue = [0, 1]\nclass = Churn", fillcolor="#399de5"] ;
325 -> 326 ;
327 [label="gini = 0.0\nsamples = 1\nvalue = [1, 0]\nclass = Not churn", fillcolor="#e58139"] ;
325 -> 327 ;
328 [label="gini = 0.0\nsamples = 2\nvalue = [2, 0]\nclass = Not churn", fillcolor="#e58139"] ;
302 -> 328 ;
329 [label="gini = 0.0\nsamples = 3\nvalue = [3, 0]\nclass = Not churn", fillcolor="#e58139"] ;
301 -> 329 ;
330 [label="index <= 1.6\ngini = 0.3\nsamples = 16\nvalue = [13, 3]\nclass = Not churn", fillcolor="#eb9e67"] ;
284 -> 330 ;
331 [label="MonthlyCharges <= 0.1\ngini = 0.1\nsamples = 13\nvalue = [12, 1]\nclass = Not churn", fillcolor="#e78c49"] ;
330 -> 331 ;
332 [label="gini = 0.0\nsamples = 12\nvalue = [12, 0]\nclass = Not churn", fillcolor="#e58139"] ;
331 -> 332 ;
333 [label="gini = 0.0\nsamples = 1\nvalue = [0, 1]\nclass = Churn", fillcolor="#399de5"] ;
331 -> 333 ;
334 [label="OnlineBackup_Yes <= 0.5\ngini = 0.4\nsamples = 3\nvalue = [1, 2]\nclass = Churn", fillcolor="#9ccef2"] ;
330 -> 334 ;
335 [label="gini = 0.0\nsamples = 1\nvalue = [1, 0]\nclass = Not churn", fillcolor="#e58139"] ;
334 -> 335 ;
336 [label="gini = 0.0\nsamples = 2\nvalue = [0, 2]\nclass = Churn", fillcolor="#399de5"] ;
334 -> 336 ;
337 [label="index <= 1.5\ngini = 0.3\nsamples = 335\nvalue = [266, 69]\nclass = Not churn", fillcolor="#eca26c"] ;
275 -> 337 ;
338 [label="OnlineBackup_Yes <= 0.5\ngini = 0.3\nsamples = 308\nvalue = [252, 56]\nclass = Not churn", fillcolor="#eb9d65"] ;
337 -> 338 ;
339 [label="PaymentMethod_Electronic check <= 0.5\ngini = 0.4\nsamples = 217\nvalue = [166, 51]\nclass = Not churn", fillcolor="#eda876"] ;
338 -> 339 ;
340 [label="MultipleLines_Yes <= 0.5\ngini = 0.3\nsamples = 144\nvalue = [119, 25]\nclass = Not churn", fillcolor="#ea9b63"] ;
339 -> 340 ;
341 [label="StreamingTV_Yes <= 0.5\ngini = 0.2\nsamples = 113\nvalue = [100, 13]\nclass = Not churn", fillcolor="#e89153"] ;
340 -> 341 ;
342 [label="TotalCharges <= -0.6\ngini = 0.1\nsamples = 81\nvalue = [75, 6]\nclass = Not churn", fillcolor="#e78b49"] ;
341 -> 342 ;
343 [label="index <= -1.2\ngini = 0.1\nsamples = 71\nvalue = [68, 3]\nclass = Not churn", fillcolor="#e68742"] ;
342 -> 343 ;
344 [label="index <= -1.2\ngini = 0.3\nsamples = 12\nvalue = [10, 2]\nclass = Not churn", fillcolor="#ea9a61"] ;
343 -> 344 ;
345 [label="index <= -1.5\ngini = 0.2\nsamples = 11\nvalue = [10, 1]\nclass = Not churn", fillcolor="#e88e4d"] ;
344 -> 345 ;
346 [label="Dependents_Yes <= 0.5\ngini = 0.4\nsamples = 4\nvalue = [3, 1]\nclass = Not churn", fillcolor="#eeab7b"] ;
345 -> 346 ;
347 [label="gini = 0.0\nsamples = 1\nvalue = [0, 1]\nclass = Churn", fillcolor="#399de5"] ;
346 -> 347 ;
348 [label="gini = 0.0\nsamples = 3\nvalue = [3, 0]\nclass = Not churn", fillcolor="#e58139"] ;
346 -> 348 ;
349 [label="gini = 0.0\nsamples = 7\nvalue = [7, 0]\nclass = Not churn", fillcolor="#e58139"] ;
345 -> 349 ;
350 [label="gini = 0.0\nsamples = 1\nvalue = [0, 1]\nclass = Churn", fillcolor="#399de5"] ;
344 -> 350 ;
351 [label="tenure <= -1.0\ngini = 0.0\nsamples = 59\nvalue = [58, 1]\nclass = Not churn", fillcolor="#e5833c"] ;
343 -> 351 ;
352 [label="TotalCharges <= -0.9\ngini = 0.2\nsamples = 8\nvalue = [7, 1]\nclass = Not churn", fillcolor="#e99355"] ;
351 -> 352 ;
353 [label="gini = 0.0\nsamples = 6\nvalue = [6, 0]\nclass = Not churn", fillcolor="#e58139"] ;
352 -> 353 ;
354 [label="PaperlessBilling_Yes <= 0.5\ngini = 0.5\nsamples = 2\nvalue = [1, 1]\nclass = Not churn", fillcolor="#ffffff"] ;
352 -> 354 ;
355 [label="gini = 0.0\nsamples = 1\nvalue = [1, 0]\nclass = Not churn", fillcolor="#e58139"] ;
354 -> 355 ;
356 [label="gini = 0.0\nsamples = 1\nvalue = [0, 1]\nclass = Churn", fillcolor="#399de5"] ;
354 -> 356 ;
357 [label="gini = 0.0\nsamples = 51\nvalue = [51, 0]\nclass = Not churn", fillcolor="#e58139"] ;
351 -> 357 ;
358 [label="gender_Male <= 0.5\ngini = 0.4\nsamples = 10\nvalue = [7, 3]\nclass = Not churn", fillcolor="#f0b78e"] ;
342 -> 358 ;
359 [label="gini = 0.0\nsamples = 5\nvalue = [5, 0]\nclass = Not churn", fillcolor="#e58139"] ;
358 -> 359 ;
360 [label="MonthlyCharges <= -0.3\ngini = 0.5\nsamples = 5\nvalue = [2, 3]\nclass = Churn", fillcolor="#bddef6"] ;
358 -> 360 ;
361 [label="gini = 0.0\nsamples = 3\nvalue = [0, 3]\nclass = Churn", fillcolor="#399de5"] ;
360 -> 361 ;
362 [label="gini = 0.0\nsamples = 2\nvalue = [2, 0]\nclass = Not churn", fillcolor="#e58139"] ;
360 -> 362 ;
363 [label="PhoneService_Yes <= 0.5\ngini = 0.3\nsamples = 32\nvalue = [25, 7]\nclass = Not churn", fillcolor="#eca470"] ;
341 -> 363 ;
364 [label="MonthlyCharges <= -0.7\ngini = 0.5\nsamples = 7\nvalue = [3, 4]\nclass = Churn", fillcolor="#cee6f8"] ;
363 -> 364 ;
365 [label="gini = 0.0\nsamples = 2\nvalue = [2, 0]\nclass = Not churn", fillcolor="#e58139"] ;
364 -> 365 ;
366 [label="MonthlyCharges <= -0.5\ngini = 0.3\nsamples = 5\nvalue = [1, 4]\nclass = Churn", fillcolor="#6ab6ec"] ;
364 -> 366 ;
367 [label="gini = 0.0\nsamples = 3\nvalue = [0, 3]\nclass = Churn", fillcolor="#399de5"] ;
366 -> 367 ;
368 [label="Partner_Yes <= 0.5\ngini = 0.5\nsamples = 2\nvalue = [1, 1]\nclass = Not churn", fillcolor="#ffffff"] ;
366 -> 368 ;
369 [label="gini = 0.0\nsamples = 1\nvalue = [0, 1]\nclass = Churn", fillcolor="#399de5"] ;
368 -> 369 ;
370 [label="gini = 0.0\nsamples = 1\nvalue = [1, 0]\nclass = Not churn", fillcolor="#e58139"] ;
368 -> 370 ;
371 [label="TotalCharges <= -0.8\ngini = 0.2\nsamples = 25\nvalue = [22, 3]\nclass = Not churn", fillcolor="#e99254"] ;
363 -> 371 ;
372 [label="PaymentMethod_Mailed check <= 0.5\ngini = 0.5\nsamples = 4\nvalue = [2, 2]\nclass = Not churn", fillcolor="#ffffff"] ;
371 -> 372 ;
373 [label="gini = 0.0\nsamples = 2\nvalue = [2, 0]\nclass = Not churn", fillcolor="#e58139"] ;
372 -> 373 ;
374 [label="gini = 0.0\nsamples = 2\nvalue = [0, 2]\nclass = Churn", fillcolor="#399de5"] ;
372 -> 374 ;
375 [label="MonthlyCharges <= 0.2\ngini = 0.1\nsamples = 21\nvalue = [20, 1]\nclass = Not churn", fillcolor="#e68743"] ;
371 -> 375 ;
376 [label="gini = 0.0\nsamples = 18\nvalue = [18, 0]\nclass = Not churn", fillcolor="#e58139"] ;
375 -> 376 ;
377 [label="OnlineSecurity_Yes <= 0.5\ngini = 0.4\nsamples = 3\nvalue = [2, 1]\nclass = Not churn", fillcolor="#f2c09c"] ;
375 -> 377 ;
378 [label="gini = 0.0\nsamples = 1\nvalue = [0, 1]\nclass = Churn", fillcolor="#399de5"] ;
377 -> 378 ;
379 [label="gini = 0.0\nsamples = 2\nvalue = [2, 0]\nclass = Not churn", fillcolor="#e58139"] ;
377 -> 379 ;
380 [label="index <= 0.7\ngini = 0.5\nsamples = 31\nvalue = [19, 12]\nclass = Not churn", fillcolor="#f5d1b6"] ;
340 -> 380 ;
381 [label="PaperlessBilling_Yes <= 0.5\ngini = 0.4\nsamples = 25\nvalue = [18, 7]\nclass = Not churn", fillcolor="#efb286"] ;
380 -> 381 ;
382 [label="gini = 0.0\nsamples = 9\nvalue = [9, 0]\nclass = Not churn", fillcolor="#e58139"] ;
381 -> 382 ;
383 [label="PaymentMethod_Credit card (automatic) <= 0.5\ngini = 0.5\nsamples = 16\nvalue = [9, 7]\nclass = Not churn", fillcolor="#f9e3d3"] ;
381 -> 383 ;
384 [label="TotalCharges <= -0.6\ngini = 0.5\nsamples = 14\nvalue = [9, 5]\nclass = Not churn", fillcolor="#f3c7a7"] ;
383 -> 384 ;
385 [label="tenure <= -0.8\ngini = 0.5\nsamples = 8\nvalue = [3, 5]\nclass = Churn", fillcolor="#b0d8f5"] ;
384 -> 385 ;
386 [label="DeviceProtection_Yes <= 0.5\ngini = 0.4\nsamples = 4\nvalue = [3, 1]\nclass = Not churn", fillcolor="#eeab7b"] ;
385 -> 386 ;
387 [label="gini = 0.0\nsamples = 3\nvalue = [3, 0]\nclass = Not churn", fillcolor="#e58139"] ;
386 -> 387 ;
388 [label="gini = 0.0\nsamples = 1\nvalue = [0, 1]\nclass = Churn", fillcolor="#399de5"] ;
386 -> 388 ;
389 [label="gini = 0.0\nsamples = 4\nvalue = [0, 4]\nclass = Churn", fillcolor="#399de5"] ;
385 -> 389 ;
390 [label="gini = 0.0\nsamples = 6\nvalue = [6, 0]\nclass = Not churn", fillcolor="#e58139"] ;
384 -> 390 ;
391 [label="gini = 0.0\nsamples = 2\nvalue = [0, 2]\nclass = Churn", fillcolor="#399de5"] ;
383 -> 391 ;
392 [label="Dependents_Yes <= 0.5\ngini = 0.3\nsamples = 6\nvalue = [1, 5]\nclass = Churn", fillcolor="#61b1ea"] ;
380 -> 392 ;
393 [label="gini = 0.0\nsamples = 5\nvalue = [0, 5]\nclass = Churn", fillcolor="#399de5"] ;
392 -> 393 ;
394 [label="gini = 0.0\nsamples = 1\nvalue = [1, 0]\nclass = Not churn", fillcolor="#e58139"] ;
392 -> 394 ;
395 [label="MonthlyCharges <= -0.2\ngini = 0.5\nsamples = 73\nvalue = [47, 26]\nclass = Not churn", fillcolor="#f3c7a7"] ;
339 -> 395 ;
396 [label="gender_Male <= 0.5\ngini = 0.5\nsamples = 56\nvalue = [31, 25]\nclass = Not churn", fillcolor="#fae7d9"] ;
395 -> 396 ;
397 [label="MonthlyCharges <= -0.2\ngini = 0.4\nsamples = 35\nvalue = [24, 11]\nclass = Not churn", fillcolor="#f1bb94"] ;
396 -> 397 ;
398 [label="Partner_Yes <= 0.5\ngini = 0.4\nsamples = 33\nvalue = [24, 9]\nclass = Not churn", fillcolor="#efb083"] ;
397 -> 398 ;
399 [label="MonthlyCharges <= -1.0\ngini = 0.3\nsamples = 23\nvalue = [19, 4]\nclass = Not churn", fillcolor="#ea9c63"] ;
398 -> 399 ;
400 [label="index <= 0.3\ngini = 0.4\nsamples = 3\nvalue = [1, 2]\nclass = Churn", fillcolor="#9ccef2"] ;
399 -> 400 ;
401 [label="gini = 0.0\nsamples = 2\nvalue = [0, 2]\nclass = Churn", fillcolor="#399de5"] ;
400 -> 401 ;
402 [label="gini = 0.0\nsamples = 1\nvalue = [1, 0]\nclass = Not churn", fillcolor="#e58139"] ;
400 -> 402 ;
403 [label="MonthlyCharges <= -0.5\ngini = 0.2\nsamples = 20\nvalue = [18, 2]\nclass = Not churn", fillcolor="#e88f4f"] ;
399 -> 403 ;
404 [label="TotalCharges <= -0.7\ngini = 0.3\nsamples = 11\nvalue = [9, 2]\nclass = Not churn", fillcolor="#eb9d65"] ;
403 -> 404 ;
405 [label="MonthlyCharges <= -0.5\ngini = 0.2\nsamples = 10\nvalue = [9, 1]\nclass = Not churn", fillcolor="#e88f4f"] ;
404 -> 405 ;
406 [label="gini = 0.0\nsamples = 9\nvalue = [9, 0]\nclass = Not churn", fillcolor="#e58139"] ;
405 -> 406 ;
407 [label="gini = 0.0\nsamples = 1\nvalue = [0, 1]\nclass = Churn", fillcolor="#399de5"] ;
405 -> 407 ;
408 [label="gini = 0.0\nsamples = 1\nvalue = [0, 1]\nclass = Churn", fillcolor="#399de5"] ;
404 -> 408 ;
409 [label="gini = 0.0\nsamples = 9\nvalue = [9, 0]\nclass = Not churn", fillcolor="#e58139"] ;
403 -> 409 ;
410 [label="PaperlessBilling_Yes <= 0.5\ngini = 0.5\nsamples = 10\nvalue = [5, 5]\nclass = Not churn", fillcolor="#ffffff"] ;
398 -> 410 ;
411 [label="TotalCharges <= -0.7\ngini = 0.3\nsamples = 5\nvalue = [4, 1]\nclass = Not churn", fillcolor="#eca06a"] ;
410 -> 411 ;
412 [label="gini = 0.0\nsamples = 4\nvalue = [4, 0]\nclass = Not churn", fillcolor="#e58139"] ;
411 -> 412 ;
413 [label="gini = 0.0\nsamples = 1\nvalue = [0, 1]\nclass = Churn", fillcolor="#399de5"] ;
411 -> 413 ;
414 [label="MonthlyCharges <= -0.5\ngini = 0.3\nsamples = 5\nvalue = [1, 4]\nclass = Churn", fillcolor="#6ab6ec"] ;
410 -> 414 ;
415 [label="gini = 0.0\nsamples = 4\nvalue = [0, 4]\nclass = Churn", fillcolor="#399de5"] ;
414 -> 415 ;
416 [label="gini = 0.0\nsamples = 1\nvalue = [1, 0]\nclass = Not churn", fillcolor="#e58139"] ;
414 -> 416 ;
417 [label="gini = 0.0\nsamples = 2\nvalue = [0, 2]\nclass = Churn", fillcolor="#399de5"] ;
397 -> 417 ;
418 [label="index <= 1.2\ngini = 0.4\nsamples = 21\nvalue = [7, 14]\nclass = Churn", fillcolor="#9ccef2"] ;
396 -> 418 ;
419 [label="tenure <= -1.0\ngini = 0.4\nsamples = 19\nvalue = [5, 14]\nclass = Churn", fillcolor="#80c0ee"] ;
418 -> 419 ;
420 [label="tenure <= -1.0\ngini = 0.5\nsamples = 5\nvalue = [3, 2]\nclass = Not churn", fillcolor="#f6d5bd"] ;
419 -> 420 ;
421 [label="MonthlyCharges <= -0.6\ngini = 0.4\nsamples = 3\nvalue = [1, 2]\nclass = Churn", fillcolor="#9ccef2"] ;
420 -> 421 ;
422 [label="gini = 0.0\nsamples = 1\nvalue = [1, 0]\nclass = Not churn", fillcolor="#e58139"] ;
421 -> 422 ;
423 [label="gini = 0.0\nsamples = 2\nvalue = [0, 2]\nclass = Churn", fillcolor="#399de5"] ;
421 -> 423 ;
424 [label="gini = 0.0\nsamples = 2\nvalue = [2, 0]\nclass = Not churn", fillcolor="#e58139"] ;
420 -> 424 ;
425 [label="index <= -1.4\ngini = 0.2\nsamples = 14\nvalue = [2, 12]\nclass = Churn", fillcolor="#5aade9"] ;
419 -> 425 ;
426 [label="gini = 0.0\nsamples = 1\nvalue = [1, 0]\nclass = Not churn", fillcolor="#e58139"] ;
425 -> 426 ;
427 [label="Dependents_Yes <= 0.5\ngini = 0.1\nsamples = 13\nvalue = [1, 12]\nclass = Churn", fillcolor="#49a5e7"] ;
425 -> 427 ;
428 [label="gini = 0.0\nsamples = 11\nvalue = [0, 11]\nclass = Churn", fillcolor="#399de5"] ;
427 -> 428 ;
429 [label="tenure <= -0.7\ngini = 0.5\nsamples = 2\nvalue = [1, 1]\nclass = Not churn", fillcolor="#ffffff"] ;
427 -> 429 ;
430 [label="gini = 0.0\nsamples = 1\nvalue = [1, 0]\nclass = Not churn", fillcolor="#e58139"] ;
429 -> 430 ;
431 [label="gini = 0.0\nsamples = 1\nvalue = [0, 1]\nclass = Churn", fillcolor="#399de5"] ;
429 -> 431 ;
432 [label="gini = 0.0\nsamples = 2\nvalue = [2, 0]\nclass = Not churn", fillcolor="#e58139"] ;
418 -> 432 ;
433 [label="tenure <= -1.0\ngini = 0.1\nsamples = 17\nvalue = [16, 1]\nclass = Not churn", fillcolor="#e78945"] ;
395 -> 433 ;
434 [label="MultipleLines_Yes <= 0.5\ngini = 0.5\nsamples = 2\nvalue = [1, 1]\nclass = Not churn", fillcolor="#ffffff"] ;
433 -> 434 ;
435 [label="gini = 0.0\nsamples = 1\nvalue = [1, 0]\nclass = Not churn", fillcolor="#e58139"] ;
434 -> 435 ;
436 [label="gini = 0.0\nsamples = 1\nvalue = [0, 1]\nclass = Churn", fillcolor="#399de5"] ;
434 -> 436 ;
437 [label="gini = 0.0\nsamples = 15\nvalue = [15, 0]\nclass = Not churn", fillcolor="#e58139"] ;
433 -> 437 ;
438 [label="MonthlyCharges <= -1.0\ngini = 0.1\nsamples = 91\nvalue = [86, 5]\nclass = Not churn", fillcolor="#e78845"] ;
338 -> 438 ;
439 [label="MonthlyCharges <= -1.1\ngini = 0.4\nsamples = 6\nvalue = [4, 2]\nclass = Not churn", fillcolor="#f2c09c"] ;
438 -> 439 ;
440 [label="TotalCharges <= -0.8\ngini = 0.3\nsamples = 5\nvalue = [4, 1]\nclass = Not churn", fillcolor="#eca06a"] ;
439 -> 440 ;
441 [label="gini = 0.0\nsamples = 1\nvalue = [0, 1]\nclass = Churn", fillcolor="#399de5"] ;
440 -> 441 ;
442 [label="gini = 0.0\nsamples = 4\nvalue = [4, 0]\nclass = Not churn", fillcolor="#e58139"] ;
440 -> 442 ;
443 [label="gini = 0.0\nsamples = 1\nvalue = [0, 1]\nclass = Churn", fillcolor="#399de5"] ;
439 -> 443 ;
444 [label="TotalCharges <= -0.6\ngini = 0.1\nsamples = 85\nvalue = [82, 3]\nclass = Not churn", fillcolor="#e68640"] ;
438 -> 444 ;
445 [label="gini = 0.0\nsamples = 55\nvalue = [55, 0]\nclass = Not churn", fillcolor="#e58139"] ;
444 -> 445 ;
446 [label="TotalCharges <= -0.6\ngini = 0.2\nsamples = 30\nvalue = [27, 3]\nclass = Not churn", fillcolor="#e88f4f"] ;
444 -> 446 ;
447 [label="gini = 0.0\nsamples = 1\nvalue = [0, 1]\nclass = Churn", fillcolor="#399de5"] ;
446 -> 447 ;
448 [label="TotalCharges <= -0.6\ngini = 0.1\nsamples = 29\nvalue = [27, 2]\nclass = Not churn", fillcolor="#e78a48"] ;
446 -> 448 ;
449 [label="TotalCharges <= -0.6\ngini = 0.3\nsamples = 9\nvalue = [7, 2]\nclass = Not churn", fillcolor="#eca572"] ;
448 -> 449 ;
450 [label="gini = 0.0\nsamples = 7\nvalue = [7, 0]\nclass = Not churn", fillcolor="#e58139"] ;
449 -> 450 ;
451 [label="gini = 0.0\nsamples = 2\nvalue = [0, 2]\nclass = Churn", fillcolor="#399de5"] ;
449 -> 451 ;
452 [label="gini = 0.0\nsamples = 20\nvalue = [20, 0]\nclass = Not churn", fillcolor="#e58139"] ;
448 -> 452 ;
453 [label="MultipleLines_Yes <= 0.5\ngini = 0.5\nsamples = 27\nvalue = [14, 13]\nclass = Not churn", fillcolor="#fdf6f1"] ;
337 -> 453 ;
454 [label="Contract_Two year <= 0.5\ngini = 0.5\nsamples = 23\nvalue = [10, 13]\nclass = Churn", fillcolor="#d1e8f9"] ;
453 -> 454 ;
455 [label="index <= 1.7\ngini = 0.5\nsamples = 21\nvalue = [8, 13]\nclass = Churn", fillcolor="#b3d9f5"] ;
454 -> 455 ;
456 [label="TechSupport_Yes <= 0.5\ngini = 0.4\nsamples = 19\nvalue = [6, 13]\nclass = Churn", fillcolor="#94caf1"] ;
455 -> 456 ;
457 [label="OnlineSecurity_Yes <= 0.5\ngini = 0.5\nsamples = 15\nvalue = [6, 9]\nclass = Churn", fillcolor="#bddef6"] ;
456 -> 457 ;
458 [label="index <= 1.7\ngini = 0.5\nsamples = 11\nvalue = [6, 5]\nclass = Not churn", fillcolor="#fbeade"] ;
457 -> 458 ;
459 [label="DeviceProtection_Yes <= 0.5\ngini = 0.4\nsamples = 9\nvalue = [6, 3]\nclass = Not churn", fillcolor="#f2c09c"] ;
458 -> 459 ;
460 [label="TotalCharges <= -0.8\ngini = 0.2\nsamples = 7\nvalue = [6, 1]\nclass = Not churn", fillcolor="#e9965a"] ;
459 -> 460 ;
461 [label="MonthlyCharges <= -0.7\ngini = 0.5\nsamples = 2\nvalue = [1, 1]\nclass = Not churn", fillcolor="#ffffff"] ;
460 -> 461 ;
462 [label="gini = 0.0\nsamples = 1\nvalue = [1, 0]\nclass = Not churn", fillcolor="#e58139"] ;
461 -> 462 ;
463 [label="gini = 0.0\nsamples = 1\nvalue = [0, 1]\nclass = Churn", fillcolor="#399de5"] ;
461 -> 463 ;
464 [label="gini = 0.0\nsamples = 5\nvalue = [5, 0]\nclass = Not churn", fillcolor="#e58139"] ;
460 -> 464 ;
465 [label="gini = 0.0\nsamples = 2\nvalue = [0, 2]\nclass = Churn", fillcolor="#399de5"] ;
459 -> 465 ;
466 [label="gini = 0.0\nsamples = 2\nvalue = [0, 2]\nclass = Churn", fillcolor="#399de5"] ;
458 -> 466 ;
467 [label="gini = 0.0\nsamples = 4\nvalue = [0, 4]\nclass = Churn", fillcolor="#399de5"] ;
457 -> 467 ;
468 [label="gini = 0.0\nsamples = 4\nvalue = [0, 4]\nclass = Churn", fillcolor="#399de5"] ;
456 -> 468 ;
469 [label="gini = 0.0\nsamples = 2\nvalue = [2, 0]\nclass = Not churn", fillcolor="#e58139"] ;
455 -> 469 ;
470 [label="gini = 0.0\nsamples = 2\nvalue = [2, 0]\nclass = Not churn", fillcolor="#e58139"] ;
454 -> 470 ;
471 [label="gini = 0.0\nsamples = 4\nvalue = [4, 0]\nclass = Not churn", fillcolor="#e58139"] ;
453 -> 471 ;
472 [label="Contract_Two year <= 0.5\ngini = 0.1\nsamples = 294\nvalue = [270, 24]\nclass = Not churn", fillcolor="#e78c4b"] ;
274 -> 472 ;
473 [label="Contract_One year <= 0.5\ngini = 0.2\nsamples = 239\nvalue = [215, 24]\nclass = Not churn", fillcolor="#e88f4f"] ;
472 -> 473 ;
474 [label="MonthlyCharges <= -1.3\ngini = 0.2\nsamples = 160\nvalue = [138, 22]\nclass = Not churn", fillcolor="#e99559"] ;
473 -> 474 ;
475 [label="MonthlyCharges <= -1.5\ngini = 0.2\nsamples = 156\nvalue = [136, 20]\nclass = Not churn", fillcolor="#e99456"] ;
474 -> 475 ;
476 [label="index <= -1.1\ngini = 0.3\nsamples = 114\nvalue = [96, 18]\nclass = Not churn", fillcolor="#ea995e"] ;
475 -> 476 ;
477 [label="PaymentMethod_Electronic check <= 0.5\ngini = 0.4\nsamples = 19\nvalue = [13, 6]\nclass = Not churn", fillcolor="#f1bb94"] ;
476 -> 477 ;
478 [label="index <= -1.1\ngini = 0.4\nsamples = 17\nvalue = [13, 4]\nclass = Not churn", fillcolor="#eda876"] ;
477 -> 478 ;
479 [label="MonthlyCharges <= -1.5\ngini = 0.3\nsamples = 16\nvalue = [13, 3]\nclass = Not churn", fillcolor="#eb9e67"] ;
478 -> 479 ;
480 [label="gini = 0.0\nsamples = 1\nvalue = [0, 1]\nclass = Churn", fillcolor="#399de5"] ;
479 -> 480 ;
481 [label="SeniorCitizen_1 <= 0.5\ngini = 0.2\nsamples = 15\nvalue = [13, 2]\nclass = Not churn", fillcolor="#e99457"] ;
479 -> 481 ;
482 [label="PaymentMethod_Mailed check <= 0.5\ngini = 0.1\nsamples = 13\nvalue = [12, 1]\nclass = Not churn", fillcolor="#e78c49"] ;
481 -> 482 ;
483 [label="index <= -1.3\ngini = 0.4\nsamples = 3\nvalue = [2, 1]\nclass = Not churn", fillcolor="#f2c09c"] ;
482 -> 483 ;
484 [label="gini = 0.0\nsamples = 1\nvalue = [0, 1]\nclass = Churn", fillcolor="#399de5"] ;
483 -> 484 ;
485 [label="gini = 0.0\nsamples = 2\nvalue = [2, 0]\nclass = Not churn", fillcolor="#e58139"] ;
483 -> 485 ;
486 [label="gini = 0.0\nsamples = 10\nvalue = [10, 0]\nclass = Not churn", fillcolor="#e58139"] ;
482 -> 486 ;
487 [label="TotalCharges <= -0.9\ngini = 0.5\nsamples = 2\nvalue = [1, 1]\nclass = Not churn", fillcolor="#ffffff"] ;
481 -> 487 ;
488 [label="gini = 0.0\nsamples = 1\nvalue = [1, 0]\nclass = Not churn", fillcolor="#e58139"] ;
487 -> 488 ;
489 [label="gini = 0.0\nsamples = 1\nvalue = [0, 1]\nclass = Churn", fillcolor="#399de5"] ;
487 -> 489 ;
490 [label="gini = 0.0\nsamples = 1\nvalue = [0, 1]\nclass = Churn", fillcolor="#399de5"] ;
478 -> 490 ;
491 [label="gini = 0.0\nsamples = 2\nvalue = [0, 2]\nclass = Churn", fillcolor="#399de5"] ;
477 -> 491 ;
492 [label="index <= -0.4\ngini = 0.2\nsamples = 95\nvalue = [83, 12]\nclass = Not churn", fillcolor="#e99356"] ;
476 -> 492 ;
493 [label="gini = 0.0\nsamples = 25\nvalue = [25, 0]\nclass = Not churn", fillcolor="#e58139"] ;
492 -> 493 ;
494 [label="index <= -0.4\ngini = 0.3\nsamples = 70\nvalue = [58, 12]\nclass = Not churn", fillcolor="#ea9b62"] ;
492 -> 494 ;
495 [label="gini = 0.0\nsamples = 1\nvalue = [0, 1]\nclass = Churn", fillcolor="#399de5"] ;
494 -> 495 ;
496 [label="TotalCharges <= -1.0\ngini = 0.3\nsamples = 69\nvalue = [58, 11]\nclass = Not churn", fillcolor="#ea995f"] ;
494 -> 496 ;
497 [label="gini = 0.0\nsamples = 13\nvalue = [13, 0]\nclass = Not churn", fillcolor="#e58139"] ;
496 -> 497 ;
498 [label="TotalCharges <= -0.9\ngini = 0.3\nsamples = 56\nvalue = [45, 11]\nclass = Not churn", fillcolor="#eba069"] ;
496 -> 498 ;
499 [label="Partner_Yes <= 0.5\ngini = 0.4\nsamples = 25\nvalue = [17, 8]\nclass = Not churn", fillcolor="#f1bc96"] ;
498 -> 499 ;
500 [label="TotalCharges <= -0.9\ngini = 0.3\nsamples = 19\nvalue = [15, 4]\nclass = Not churn", fillcolor="#eca36e"] ;
499 -> 500 ;
501 [label="TotalCharges <= -1.0\ngini = 0.1\nsamples = 13\nvalue = [12, 1]\nclass = Not churn", fillcolor="#e78c49"] ;
500 -> 501 ;
502 [label="gini = 0.0\nsamples = 1\nvalue = [0, 1]\nclass = Churn", fillcolor="#399de5"] ;
501 -> 502 ;
503 [label="gini = 0.0\nsamples = 12\nvalue = [12, 0]\nclass = Not churn", fillcolor="#e58139"] ;
501 -> 503 ;
504 [label="PaymentMethod_Mailed check <= 0.5\ngini = 0.5\nsamples = 6\nvalue = [3, 3]\nclass = Not churn", fillcolor="#ffffff"] ;
500 -> 504 ;
505 [label="gini = 0.0\nsamples = 2\nvalue = [2, 0]\nclass = Not churn", fillcolor="#e58139"] ;
504 -> 505 ;
506 [label="MonthlyCharges <= -1.5\ngini = 0.4\nsamples = 4\nvalue = [1, 3]\nclass = Churn", fillcolor="#7bbeee"] ;
504 -> 506 ;
507 [label="gini = 0.0\nsamples = 3\nvalue = [0, 3]\nclass = Churn", fillcolor="#399de5"] ;
506 -> 507 ;
508 [label="gini = 0.0\nsamples = 1\nvalue = [1, 0]\nclass = Not churn", fillcolor="#e58139"] ;
506 -> 508 ;
509 [label="MonthlyCharges <= -1.5\ngini = 0.4\nsamples = 6\nvalue = [2, 4]\nclass = Churn", fillcolor="#9ccef2"] ;
499 -> 509 ;
510 [label="gini = 0.0\nsamples = 4\nvalue = [0, 4]\nclass = Churn", fillcolor="#399de5"] ;
509 -> 510 ;
511 [label="gini = 0.0\nsamples = 2\nvalue = [2, 0]\nclass = Not churn", fillcolor="#e58139"] ;
509 -> 511 ;
512 [label="TotalCharges <= -0.9\ngini = 0.2\nsamples = 31\nvalue = [28, 3]\nclass = Not churn", fillcolor="#e88e4e"] ;
498 -> 512 ;
513 [label="MonthlyCharges <= -1.5\ngini = 0.1\nsamples = 25\nvalue = [24, 1]\nclass = Not churn", fillcolor="#e68641"] ;
512 -> 513 ;
514 [label="gini = 0.0\nsamples = 18\nvalue = [18, 0]\nclass = Not churn", fillcolor="#e58139"] ;
513 -> 514 ;
515 [label="MonthlyCharges <= -1.5\ngini = 0.2\nsamples = 7\nvalue = [6, 1]\nclass = Not churn", fillcolor="#e9965a"] ;
513 -> 515 ;
516 [label="PaperlessBilling_Yes <= 0.5\ngini = 0.5\nsamples = 2\nvalue = [1, 1]\nclass = Not churn", fillcolor="#ffffff"] ;
515 -> 516 ;
517 [label="gini = 0.0\nsamples = 1\nvalue = [0, 1]\nclass = Churn", fillcolor="#399de5"] ;
516 -> 517 ;
518 [label="gini = 0.0\nsamples = 1\nvalue = [1, 0]\nclass = Not churn", fillcolor="#e58139"] ;
516 -> 518 ;
519 [label="gini = 0.0\nsamples = 5\nvalue = [5, 0]\nclass = Not churn", fillcolor="#e58139"] ;
515 -> 519 ;
520 [label="tenure <= -0.6\ngini = 0.4\nsamples = 6\nvalue = [4, 2]\nclass = Not churn", fillcolor="#f2c09c"] ;
512 -> 520 ;
521 [label="gini = 0.0\nsamples = 2\nvalue = [0, 2]\nclass = Churn", fillcolor="#399de5"] ;
520 -> 521 ;
522 [label="gini = 0.0\nsamples = 4\nvalue = [4, 0]\nclass = Not churn", fillcolor="#e58139"] ;
520 -> 522 ;
523 [label="TotalCharges <= -1.0\ngini = 0.1\nsamples = 42\nvalue = [40, 2]\nclass = Not churn", fillcolor="#e68743"] ;
475 -> 523 ;
524 [label="Dependents_Yes <= 0.5\ngini = 0.4\nsamples = 3\nvalue = [2, 1]\nclass = Not churn", fillcolor="#f2c09c"] ;
523 -> 524 ;
525 [label="gini = 0.0\nsamples = 1\nvalue = [0, 1]\nclass = Churn", fillcolor="#399de5"] ;
524 -> 525 ;
526 [label="gini = 0.0\nsamples = 2\nvalue = [2, 0]\nclass = Not churn", fillcolor="#e58139"] ;
524 -> 526 ;
527 [label="TotalCharges <= -0.8\ngini = 0.0\nsamples = 39\nvalue = [38, 1]\nclass = Not churn", fillcolor="#e6843e"] ;
523 -> 527 ;
528 [label="gini = 0.0\nsamples = 35\nvalue = [35, 0]\nclass = Not churn", fillcolor="#e58139"] ;
527 -> 528 ;
529 [label="TotalCharges <= -0.8\ngini = 0.4\nsamples = 4\nvalue = [3, 1]\nclass = Not churn", fillcolor="#eeab7b"] ;
527 -> 529 ;
530 [label="gini = 0.0\nsamples = 1\nvalue = [0, 1]\nclass = Churn", fillcolor="#399de5"] ;
529 -> 530 ;
531 [label="gini = 0.0\nsamples = 3\nvalue = [3, 0]\nclass = Not churn", fillcolor="#e58139"] ;
529 -> 531 ;
532 [label="index <= 0.1\ngini = 0.5\nsamples = 4\nvalue = [2, 2]\nclass = Not churn", fillcolor="#ffffff"] ;
474 -> 532 ;
533 [label="gini = 0.0\nsamples = 2\nvalue = [2, 0]\nclass = Not churn", fillcolor="#e58139"] ;
532 -> 533 ;
534 [label="gini = 0.0\nsamples = 2\nvalue = [0, 2]\nclass = Churn", fillcolor="#399de5"] ;
532 -> 534 ;
535 [label="TotalCharges <= -0.8\ngini = 0.0\nsamples = 79\nvalue = [77, 2]\nclass = Not churn", fillcolor="#e6843e"] ;
473 -> 535 ;
536 [label="TotalCharges <= -0.9\ngini = 0.0\nsamples = 75\nvalue = [74, 1]\nclass = Not churn", fillcolor="#e5833c"] ;
535 -> 536 ;
537 [label="TotalCharges <= -0.9\ngini = 0.1\nsamples = 14\nvalue = [13, 1]\nclass = Not churn", fillcolor="#e78b48"] ;
536 -> 537 ;
538 [label="gini = 0.0\nsamples = 13\nvalue = [13, 0]\nclass = Not churn", fillcolor="#e58139"] ;
537 -> 538 ;
539 [label="gini = 0.0\nsamples = 1\nvalue = [0, 1]\nclass = Churn", fillcolor="#399de5"] ;
537 -> 539 ;
540 [label="gini = 0.0\nsamples = 61\nvalue = [61, 0]\nclass = Not churn", fillcolor="#e58139"] ;
536 -> 540 ;
541 [label="TotalCharges <= -0.8\ngini = 0.4\nsamples = 4\nvalue = [3, 1]\nclass = Not churn", fillcolor="#eeab7b"] ;
535 -> 541 ;
542 [label="gini = 0.0\nsamples = 1\nvalue = [0, 1]\nclass = Churn", fillcolor="#399de5"] ;
541 -> 542 ;
543 [label="gini = 0.0\nsamples = 3\nvalue = [3, 0]\nclass = Not churn", fillcolor="#e58139"] ;
541 -> 543 ;
544 [label="gini = 0.0\nsamples = 55\nvalue = [55, 0]\nclass = Not churn", fillcolor="#e58139"] ;
472 -> 544 ;
545 [label="tenure <= -1.1\ngini = 0.4\nsamples = 878\nvalue = [290, 588]\nclass = Churn", fillcolor="#9bcdf2"] ;
1 -> 545 ;
546 [label="OnlineSecurity_Yes <= 0.5\ngini = 0.4\nsamples = 442\nvalue = [104, 338]\nclass = Churn", fillcolor="#76bbed"] ;
545 -> 546 ;
547 [label="MonthlyCharges <= 0.4\ngini = 0.3\nsamples = 410\nvalue = [87, 323]\nclass = Churn", fillcolor="#6eb7ec"] ;
546 -> 547 ;
548 [label="TotalCharges <= -1.0\ngini = 0.4\nsamples = 171\nvalue = [54, 117]\nclass = Churn", fillcolor="#94caf1"] ;
547 -> 548 ;
549 [label="TechSupport_Yes <= 0.5\ngini = 0.3\nsamples = 88\nvalue = [15, 73]\nclass = Churn", fillcolor="#62b1ea"] ;
548 -> 549 ;
550 [label="TotalCharges <= -1.0\ngini = 0.2\nsamples = 85\nvalue = [12, 73]\nclass = Churn", fillcolor="#5aade9"] ;
549 -> 550 ;
551 [label="gini = 0.0\nsamples = 31\nvalue = [0, 31]\nclass = Churn", fillcolor="#399de5"] ;
550 -> 551 ;
552 [label="TotalCharges <= -1.0\ngini = 0.3\nsamples = 54\nvalue = [12, 42]\nclass = Churn", fillcolor="#72b9ec"] ;
550 -> 552 ;
553 [label="index <= 0.5\ngini = 0.5\nsamples = 13\nvalue = [6, 7]\nclass = Churn", fillcolor="#e3f1fb"] ;
552 -> 553 ;
554 [label="index <= -0.6\ngini = 0.5\nsamples = 8\nvalue = [5, 3]\nclass = Not churn", fillcolor="#f5cdb0"] ;
553 -> 554 ;
555 [label="gini = 0.0\nsamples = 2\nvalue = [0, 2]\nclass = Churn", fillcolor="#399de5"] ;
554 -> 555 ;
556 [label="PaymentMethod_Mailed check <= 0.5\ngini = 0.3\nsamples = 6\nvalue = [5, 1]\nclass = Not churn", fillcolor="#ea9a61"] ;
554 -> 556 ;
557 [label="gini = 0.0\nsamples = 5\nvalue = [5, 0]\nclass = Not churn", fillcolor="#e58139"] ;
556 -> 557 ;
558 [label="gini = 0.0\nsamples = 1\nvalue = [0, 1]\nclass = Churn", fillcolor="#399de5"] ;
556 -> 558 ;
559 [label="SeniorCitizen_1 <= 0.5\ngini = 0.3\nsamples = 5\nvalue = [1, 4]\nclass = Churn", fillcolor="#6ab6ec"] ;
553 -> 559 ;
560 [label="gini = 0.0\nsamples = 4\nvalue = [0, 4]\nclass = Churn", fillcolor="#399de5"] ;
559 -> 560 ;
561 [label="gini = 0.0\nsamples = 1\nvalue = [1, 0]\nclass = Not churn", fillcolor="#e58139"] ;
559 -> 561 ;
562 [label="index <= -1.0\ngini = 0.2\nsamples = 41\nvalue = [6, 35]\nclass = Churn", fillcolor="#5baee9"] ;
552 -> 562 ;
563 [label="OnlineBackup_Yes <= 0.5\ngini = 0.5\nsamples = 10\nvalue = [4, 6]\nclass = Churn", fillcolor="#bddef6"] ;
562 -> 563 ;
564 [label="index <= -1.6\ngini = 0.4\nsamples = 9\nvalue = [3, 6]\nclass = Churn", fillcolor="#9ccef2"] ;
563 -> 564 ;
565 [label="gini = 0.0\nsamples = 2\nvalue = [0, 2]\nclass = Churn", fillcolor="#399de5"] ;
564 -> 565 ;
566 [label="TotalCharges <= -1.0\ngini = 0.5\nsamples = 7\nvalue = [3, 4]\nclass = Churn", fillcolor="#cee6f8"] ;
564 -> 566 ;
567 [label="gini = 0.0\nsamples = 2\nvalue = [2, 0]\nclass = Not churn", fillcolor="#e58139"] ;
566 -> 567 ;
568 [label="index <= -1.5\ngini = 0.3\nsamples = 5\nvalue = [1, 4]\nclass = Churn", fillcolor="#6ab6ec"] ;
566 -> 568 ;
569 [label="MonthlyCharges <= 0.3\ngini = 0.5\nsamples = 2\nvalue = [1, 1]\nclass = Not churn", fillcolor="#ffffff"] ;
568 -> 569 ;
570 [label="gini = 0.0\nsamples = 1\nvalue = [1, 0]\nclass = Not churn", fillcolor="#e58139"] ;
569 -> 570 ;
571 [label="gini = 0.0\nsamples = 1\nvalue = [0, 1]\nclass = Churn", fillcolor="#399de5"] ;
569 -> 571 ;
572 [label="gini = 0.0\nsamples = 3\nvalue = [0, 3]\nclass = Churn", fillcolor="#399de5"] ;
568 -> 572 ;
573 [label="gini = 0.0\nsamples = 1\nvalue = [1, 0]\nclass = Not churn", fillcolor="#e58139"] ;
563 -> 573 ;
574 [label="OnlineBackup_Yes <= 0.5\ngini = 0.1\nsamples = 31\nvalue = [2, 29]\nclass = Churn", fillcolor="#47a4e7"] ;
562 -> 574 ;
575 [label="SeniorCitizen_1 <= 0.5\ngini = 0.1\nsamples = 27\nvalue = [1, 26]\nclass = Churn", fillcolor="#41a1e6"] ;
574 -> 575 ;
576 [label="gini = 0.0\nsamples = 19\nvalue = [0, 19]\nclass = Churn", fillcolor="#399de5"] ;
575 -> 576 ;
577 [label="TotalCharges <= -1.0\ngini = 0.2\nsamples = 8\nvalue = [1, 7]\nclass = Churn", fillcolor="#55abe9"] ;
575 -> 577 ;
578 [label="index <= 0.1\ngini = 0.5\nsamples = 2\nvalue = [1, 1]\nclass = Not churn", fillcolor="#ffffff"] ;
577 -> 578 ;
579 [label="gini = 0.0\nsamples = 1\nvalue = [1, 0]\nclass = Not churn", fillcolor="#e58139"] ;
578 -> 579 ;
580 [label="gini = 0.0\nsamples = 1\nvalue = [0, 1]\nclass = Churn", fillcolor="#399de5"] ;
578 -> 580 ;
581 [label="gini = 0.0\nsamples = 6\nvalue = [0, 6]\nclass = Churn", fillcolor="#399de5"] ;
577 -> 581 ;
582 [label="PaperlessBilling_Yes <= 0.5\ngini = 0.4\nsamples = 4\nvalue = [1, 3]\nclass = Churn", fillcolor="#7bbeee"] ;
574 -> 582 ;
583 [label="gini = 0.0\nsamples = 1\nvalue = [1, 0]\nclass = Not churn", fillcolor="#e58139"] ;
582 -> 583 ;
584 [label="gini = 0.0\nsamples = 3\nvalue = [0, 3]\nclass = Churn", fillcolor="#399de5"] ;
582 -> 584 ;
585 [label="gini = 0.0\nsamples = 3\nvalue = [3, 0]\nclass = Not churn", fillcolor="#e58139"] ;
549 -> 585 ;
586 [label="MultipleLines_Yes <= 0.5\ngini = 0.5\nsamples = 83\nvalue = [39, 44]\nclass = Churn", fillcolor="#e8f4fc"] ;
548 -> 586 ;
587 [label="index <= -1.6\ngini = 0.5\nsamples = 59\nvalue = [33, 26]\nclass = Not churn", fillcolor="#f9e4d5"] ;
586 -> 587 ;
588 [label="gini = 0.0\nsamples = 3\nvalue = [0, 3]\nclass = Churn", fillcolor="#399de5"] ;
587 -> 588 ;
589 [label="Partner_Yes <= 0.5\ngini = 0.5\nsamples = 56\nvalue = [33, 23]\nclass = Not churn", fillcolor="#f7d9c3"] ;
587 -> 589 ;
590 [label="SeniorCitizen_1 <= 0.5\ngini = 0.5\nsamples = 42\nvalue = [22, 20]\nclass = Not churn", fillcolor="#fdf4ed"] ;
589 -> 590 ;
591 [label="tenure <= -1.2\ngini = 0.5\nsamples = 28\nvalue = [18, 10]\nclass = Not churn", fillcolor="#f3c7a7"] ;
590 -> 591 ;
592 [label="MonthlyCharges <= 0.2\ngini = 0.4\nsamples = 21\nvalue = [16, 5]\nclass = Not churn", fillcolor="#eda877"] ;
591 -> 592 ;
593 [label="index <= 1.1\ngini = 0.5\nsamples = 7\nvalue = [3, 4]\nclass = Churn", fillcolor="#cee6f8"] ;
592 -> 593 ;
594 [label="index <= -0.9\ngini = 0.4\nsamples = 4\nvalue = [3, 1]\nclass = Not churn", fillcolor="#eeab7b"] ;
593 -> 594 ;
595 [label="gini = 0.0\nsamples = 1\nvalue = [0, 1]\nclass = Churn", fillcolor="#399de5"] ;
594 -> 595 ;
596 [label="gini = 0.0\nsamples = 3\nvalue = [3, 0]\nclass = Not churn", fillcolor="#e58139"] ;
594 -> 596 ;
597 [label="gini = 0.0\nsamples = 3\nvalue = [0, 3]\nclass = Churn", fillcolor="#399de5"] ;
593 -> 597 ;
598 [label="index <= -0.3\ngini = 0.1\nsamples = 14\nvalue = [13, 1]\nclass = Not churn", fillcolor="#e78b48"] ;
592 -> 598 ;
599 [label="index <= -0.7\ngini = 0.4\nsamples = 4\nvalue = [3, 1]\nclass = Not churn", fillcolor="#eeab7b"] ;
598 -> 599 ;
600 [label="gini = 0.0\nsamples = 3\nvalue = [3, 0]\nclass = Not churn", fillcolor="#e58139"] ;
599 -> 600 ;
601 [label="gini = 0.0\nsamples = 1\nvalue = [0, 1]\nclass = Churn", fillcolor="#399de5"] ;
599 -> 601 ;
602 [label="gini = 0.0\nsamples = 10\nvalue = [10, 0]\nclass = Not churn", fillcolor="#e58139"] ;
598 -> 602 ;
603 [label="tenure <= -1.1\ngini = 0.4\nsamples = 7\nvalue = [2, 5]\nclass = Churn", fillcolor="#88c4ef"] ;
591 -> 603 ;
604 [label="gini = 0.0\nsamples = 5\nvalue = [0, 5]\nclass = Churn", fillcolor="#399de5"] ;
603 -> 604 ;
605 [label="gini = 0.0\nsamples = 2\nvalue = [2, 0]\nclass = Not churn", fillcolor="#e58139"] ;
603 -> 605 ;
606 [label="index <= -0.1\ngini = 0.4\nsamples = 14\nvalue = [4, 10]\nclass = Churn", fillcolor="#88c4ef"] ;
590 -> 606 ;
607 [label="PaperlessBilling_Yes <= 0.5\ngini = 0.5\nsamples = 7\nvalue = [4, 3]\nclass = Not churn", fillcolor="#f8e0ce"] ;
606 -> 607 ;
608 [label="gini = 0.0\nsamples = 3\nvalue = [3, 0]\nclass = Not churn", fillcolor="#e58139"] ;
607 -> 608 ;
609 [label="TotalCharges <= -0.8\ngini = 0.4\nsamples = 4\nvalue = [1, 3]\nclass = Churn", fillcolor="#7bbeee"] ;
607 -> 609 ;
610 [label="gini = 0.0\nsamples = 3\nvalue = [0, 3]\nclass = Churn", fillcolor="#399de5"] ;
609 -> 610 ;
611 [label="gini = 0.0\nsamples = 1\nvalue = [1, 0]\nclass = Not churn", fillcolor="#e58139"] ;
609 -> 611 ;
612 [label="gini = 0.0\nsamples = 7\nvalue = [0, 7]\nclass = Churn", fillcolor="#399de5"] ;
606 -> 612 ;
613 [label="index <= -0.0\ngini = 0.3\nsamples = 14\nvalue = [11, 3]\nclass = Not churn", fillcolor="#eca36f"] ;
589 -> 613 ;
614 [label="MonthlyCharges <= 0.2\ngini = 0.5\nsamples = 7\nvalue = [4, 3]\nclass = Not churn", fillcolor="#f8e0ce"] ;
613 -> 614 ;
615 [label="gender_Male <= 0.5\ngini = 0.3\nsamples = 5\nvalue = [4, 1]\nclass = Not churn", fillcolor="#eca06a"] ;
614 -> 615 ;
616 [label="gini = 0.0\nsamples = 3\nvalue = [3, 0]\nclass = Not churn", fillcolor="#e58139"] ;
615 -> 616 ;
617 [label="index <= -1.0\ngini = 0.5\nsamples = 2\nvalue = [1, 1]\nclass = Not churn", fillcolor="#ffffff"] ;
615 -> 617 ;
618 [label="gini = 0.0\nsamples = 1\nvalue = [0, 1]\nclass = Churn", fillcolor="#399de5"] ;
617 -> 618 ;
619 [label="gini = 0.0\nsamples = 1\nvalue = [1, 0]\nclass = Not churn", fillcolor="#e58139"] ;
617 -> 619 ;
620 [label="gini = 0.0\nsamples = 2\nvalue = [0, 2]\nclass = Churn", fillcolor="#399de5"] ;
614 -> 620 ;
621 [label="gini = 0.0\nsamples = 7\nvalue = [7, 0]\nclass = Not churn", fillcolor="#e58139"] ;
613 -> 621 ;
622 [label="MonthlyCharges <= 0.4\ngini = 0.4\nsamples = 24\nvalue = [6, 18]\nclass = Churn", fillcolor="#7bbeee"] ;
586 -> 622 ;
623 [label="MonthlyCharges <= 0.3\ngini = 0.3\nsamples = 22\nvalue = [4, 18]\nclass = Churn", fillcolor="#65b3eb"] ;
622 -> 623 ;
624 [label="Partner_Yes <= 0.5\ngini = 0.4\nsamples = 15\nvalue = [4, 11]\nclass = Churn", fillcolor="#81c1ee"] ;
623 -> 624 ;
625 [label="gender_Male <= 0.5\ngini = 0.5\nsamples = 10\nvalue = [4, 6]\nclass = Churn", fillcolor="#bddef6"] ;
624 -> 625 ;
626 [label="index <= -0.9\ngini = 0.5\nsamples = 5\nvalue = [3, 2]\nclass = Not churn", fillcolor="#f6d5bd"] ;
625 -> 626 ;
627 [label="gini = 0.0\nsamples = 1\nvalue = [0, 1]\nclass = Churn", fillcolor="#399de5"] ;
626 -> 627 ;
628 [label="SeniorCitizen_1 <= 0.5\ngini = 0.4\nsamples = 4\nvalue = [3, 1]\nclass = Not churn", fillcolor="#eeab7b"] ;
626 -> 628 ;
629 [label="gini = 0.0\nsamples = 2\nvalue = [2, 0]\nclass = Not churn", fillcolor="#e58139"] ;
628 -> 629 ;
630 [label="TotalCharges <= -0.9\ngini = 0.5\nsamples = 2\nvalue = [1, 1]\nclass = Not churn", fillcolor="#ffffff"] ;
628 -> 630 ;
631 [label="gini = 0.0\nsamples = 1\nvalue = [1, 0]\nclass = Not churn", fillcolor="#e58139"] ;
630 -> 631 ;
632 [label="gini = 0.0\nsamples = 1\nvalue = [0, 1]\nclass = Churn", fillcolor="#399de5"] ;
630 -> 632 ;
633 [label="PaperlessBilling_Yes <= 0.5\ngini = 0.3\nsamples = 5\nvalue = [1, 4]\nclass = Churn", fillcolor="#6ab6ec"] ;
625 -> 633 ;
634 [label="gini = 0.0\nsamples = 1\nvalue = [1, 0]\nclass = Not churn", fillcolor="#e58139"] ;
633 -> 634 ;
635 [label="gini = 0.0\nsamples = 4\nvalue = [0, 4]\nclass = Churn", fillcolor="#399de5"] ;
633 -> 635 ;
636 [label="gini = 0.0\nsamples = 5\nvalue = [0, 5]\nclass = Churn", fillcolor="#399de5"] ;
624 -> 636 ;
637 [label="gini = 0.0\nsamples = 7\nvalue = [0, 7]\nclass = Churn", fillcolor="#399de5"] ;
623 -> 637 ;
638 [label="gini = 0.0\nsamples = 2\nvalue = [2, 0]\nclass = Not churn", fillcolor="#e58139"] ;
622 -> 638 ;
639 [label="index <= -1.7\ngini = 0.2\nsamples = 239\nvalue = [33, 206]\nclass = Churn", fillcolor="#59ade9"] ;
547 -> 639 ;
640 [label="gini = 0.0\nsamples = 1\nvalue = [1, 0]\nclass = Not churn", fillcolor="#e58139"] ;
639 -> 640 ;
641 [label="MonthlyCharges <= 0.5\ngini = 0.2\nsamples = 238\nvalue = [32, 206]\nclass = Churn", fillcolor="#58ace9"] ;
639 -> 641 ;
642 [label="gini = 0.0\nsamples = 31\nvalue = [0, 31]\nclass = Churn", fillcolor="#399de5"] ;
641 -> 642 ;
643 [label="index <= 0.3\ngini = 0.3\nsamples = 207\nvalue = [32, 175]\nclass = Churn", fillcolor="#5dafea"] ;
641 -> 643 ;
644 [label="MonthlyCharges <= 0.6\ngini = 0.3\nsamples = 118\nvalue = [24, 94]\nclass = Churn", fillcolor="#6cb6ec"] ;
643 -> 644 ;
645 [label="MonthlyCharges <= 0.6\ngini = 0.4\nsamples = 40\nvalue = [13, 27]\nclass = Churn", fillcolor="#98ccf2"] ;
644 -> 645 ;
646 [label="PaperlessBilling_Yes <= 0.5\ngini = 0.4\nsamples = 38\nvalue = [11, 27]\nclass = Churn", fillcolor="#8ac5f0"] ;
645 -> 646 ;
647 [label="gini = 0.0\nsamples = 6\nvalue = [0, 6]\nclass = Churn", fillcolor="#399de5"] ;
646 -> 647 ;
648 [label="MonthlyCharges <= 0.6\ngini = 0.5\nsamples = 32\nvalue = [11, 21]\nclass = Churn", fillcolor="#a1d0f3"] ;
646 -> 648 ;
649 [label="index <= -0.1\ngini = 0.4\nsamples = 30\nvalue = [9, 21]\nclass = Churn", fillcolor="#8ec7f0"] ;
648 -> 649 ;
650 [label="gender_Male <= 0.5\ngini = 0.4\nsamples = 25\nvalue = [6, 19]\nclass = Churn", fillcolor="#78bced"] ;
649 -> 650 ;
651 [label="MonthlyCharges <= 0.5\ngini = 0.1\nsamples = 15\nvalue = [1, 14]\nclass = Churn", fillcolor="#47a4e7"] ;
650 -> 651 ;
652 [label="gini = 0.0\nsamples = 12\nvalue = [0, 12]\nclass = Churn", fillcolor="#399de5"] ;
651 -> 652 ;
653 [label="MonthlyCharges <= 0.5\ngini = 0.4\nsamples = 3\nvalue = [1, 2]\nclass = Churn", fillcolor="#9ccef2"] ;
651 -> 653 ;
654 [label="gini = 0.0\nsamples = 1\nvalue = [1, 0]\nclass = Not churn", fillcolor="#e58139"] ;
653 -> 654 ;
655 [label="gini = 0.0\nsamples = 2\nvalue = [0, 2]\nclass = Churn", fillcolor="#399de5"] ;
653 -> 655 ;
656 [label="OnlineBackup_Yes <= 0.5\ngini = 0.5\nsamples = 10\nvalue = [5, 5]\nclass = Not churn", fillcolor="#ffffff"] ;
650 -> 656 ;
657 [label="TotalCharges <= -1.0\ngini = 0.5\nsamples = 8\nvalue = [5, 3]\nclass = Not churn", fillcolor="#f5cdb0"] ;
656 -> 657 ;
658 [label="gini = 0.0\nsamples = 2\nvalue = [0, 2]\nclass = Churn", fillcolor="#399de5"] ;
657 -> 658 ;
659 [label="MonthlyCharges <= 0.5\ngini = 0.3\nsamples = 6\nvalue = [5, 1]\nclass = Not churn", fillcolor="#ea9a61"] ;
657 -> 659 ;
660 [label="gini = 0.0\nsamples = 4\nvalue = [4, 0]\nclass = Not churn", fillcolor="#e58139"] ;
659 -> 660 ;
661 [label="index <= -1.0\ngini = 0.5\nsamples = 2\nvalue = [1, 1]\nclass = Not churn", fillcolor="#ffffff"] ;
659 -> 661 ;
662 [label="gini = 0.0\nsamples = 1\nvalue = [0, 1]\nclass = Churn", fillcolor="#399de5"] ;
661 -> 662 ;
663 [label="gini = 0.0\nsamples = 1\nvalue = [1, 0]\nclass = Not churn", fillcolor="#e58139"] ;
661 -> 663 ;
664 [label="gini = 0.0\nsamples = 2\nvalue = [0, 2]\nclass = Churn", fillcolor="#399de5"] ;
656 -> 664 ;
665 [label="gender_Male <= 0.5\ngini = 0.5\nsamples = 5\nvalue = [3, 2]\nclass = Not churn", fillcolor="#f6d5bd"] ;
649 -> 665 ;
666 [label="gini = 0.0\nsamples = 3\nvalue = [3, 0]\nclass = Not churn", fillcolor="#e58139"] ;
665 -> 666 ;
667 [label="gini = 0.0\nsamples = 2\nvalue = [0, 2]\nclass = Churn", fillcolor="#399de5"] ;
665 -> 667 ;
668 [label="gini = 0.0\nsamples = 2\nvalue = [2, 0]\nclass = Not churn", fillcolor="#e58139"] ;
648 -> 668 ;
669 [label="gini = 0.0\nsamples = 2\nvalue = [2, 0]\nclass = Not churn", fillcolor="#e58139"] ;
645 -> 669 ;
670 [label="TotalCharges <= -0.8\ngini = 0.2\nsamples = 78\nvalue = [11, 67]\nclass = Churn", fillcolor="#5aade9"] ;
644 -> 670 ;
671 [label="MonthlyCharges <= 1.4\ngini = 0.2\nsamples = 70\nvalue = [7, 63]\nclass = Churn", fillcolor="#4fa8e8"] ;
670 -> 671 ;
672 [label="MonthlyCharges <= 0.9\ngini = 0.2\nsamples = 69\nvalue = [6, 63]\nclass = Churn", fillcolor="#4ca6e7"] ;
671 -> 672 ;
673 [label="gini = 0.0\nsamples = 34\nvalue = [0, 34]\nclass = Churn", fillcolor="#399de5"] ;
672 -> 673 ;
674 [label="MonthlyCharges <= 0.9\ngini = 0.3\nsamples = 35\nvalue = [6, 29]\nclass = Churn", fillcolor="#62b1ea"] ;
672 -> 674 ;
675 [label="gini = 0.0\nsamples = 1\nvalue = [1, 0]\nclass = Not churn", fillcolor="#e58139"] ;
674 -> 675 ;
676 [label="index <= -1.0\ngini = 0.3\nsamples = 34\nvalue = [5, 29]\nclass = Churn", fillcolor="#5baee9"] ;
674 -> 676 ;
677 [label="gini = 0.0\nsamples = 10\nvalue = [0, 10]\nclass = Churn", fillcolor="#399de5"] ;
676 -> 677 ;
678 [label="index <= -0.5\ngini = 0.3\nsamples = 24\nvalue = [5, 19]\nclass = Churn", fillcolor="#6db7ec"] ;
676 -> 678 ;
679 [label="MultipleLines_Yes <= 0.5\ngini = 0.5\nsamples = 6\nvalue = [3, 3]\nclass = Not churn", fillcolor="#ffffff"] ;
678 -> 679 ;
680 [label="MonthlyCharges <= 0.9\ngini = 0.4\nsamples = 4\nvalue = [3, 1]\nclass = Not churn", fillcolor="#eeab7b"] ;
679 -> 680 ;
681 [label="gini = 0.0\nsamples = 1\nvalue = [0, 1]\nclass = Churn", fillcolor="#399de5"] ;
680 -> 681 ;
682 [label="gini = 0.0\nsamples = 3\nvalue = [3, 0]\nclass = Not churn", fillcolor="#e58139"] ;
680 -> 682 ;
683 [label="gini = 0.0\nsamples = 2\nvalue = [0, 2]\nclass = Churn", fillcolor="#399de5"] ;
679 -> 683 ;
684 [label="index <= -0.2\ngini = 0.2\nsamples = 18\nvalue = [2, 16]\nclass = Churn", fillcolor="#52a9e8"] ;
678 -> 684 ;
685 [label="gini = 0.0\nsamples = 8\nvalue = [0, 8]\nclass = Churn", fillcolor="#399de5"] ;
684 -> 685 ;
686 [label="index <= -0.1\ngini = 0.3\nsamples = 10\nvalue = [2, 8]\nclass = Churn", fillcolor="#6ab6ec"] ;
684 -> 686 ;
687 [label="MonthlyCharges <= 1.0\ngini = 0.4\nsamples = 3\nvalue = [2, 1]\nclass = Not churn", fillcolor="#f2c09c"] ;
686 -> 687 ;
688 [label="gini = 0.0\nsamples = 1\nvalue = [0, 1]\nclass = Churn", fillcolor="#399de5"] ;
687 -> 688 ;
689 [label="gini = 0.0\nsamples = 2\nvalue = [2, 0]\nclass = Not churn", fillcolor="#e58139"] ;
687 -> 689 ;
690 [label="gini = 0.0\nsamples = 7\nvalue = [0, 7]\nclass = Churn", fillcolor="#399de5"] ;
686 -> 690 ;
691 [label="gini = 0.0\nsamples = 1\nvalue = [1, 0]\nclass = Not churn", fillcolor="#e58139"] ;
671 -> 691 ;
692 [label="MonthlyCharges <= 0.9\ngini = 0.5\nsamples = 8\nvalue = [4, 4]\nclass = Not churn", fillcolor="#ffffff"] ;
670 -> 692 ;
693 [label="MonthlyCharges <= 0.7\ngini = 0.4\nsamples = 4\nvalue = [3, 1]\nclass = Not churn", fillcolor="#eeab7b"] ;
692 -> 693 ;
694 [label="gini = 0.0\nsamples = 1\nvalue = [0, 1]\nclass = Churn", fillcolor="#399de5"] ;
693 -> 694 ;
695 [label="gini = 0.0\nsamples = 3\nvalue = [3, 0]\nclass = Not churn", fillcolor="#e58139"] ;
693 -> 695 ;
696 [label="PaperlessBilling_Yes <= 0.5\ngini = 0.4\nsamples = 4\nvalue = [1, 3]\nclass = Churn", fillcolor="#7bbeee"] ;
692 -> 696 ;
697 [label="gini = 0.0\nsamples = 1\nvalue = [1, 0]\nclass = Not churn", fillcolor="#e58139"] ;
696 -> 697 ;
698 [label="gini = 0.0\nsamples = 3\nvalue = [0, 3]\nclass = Churn", fillcolor="#399de5"] ;
696 -> 698 ;
699 [label="index <= 1.5\ngini = 0.2\nsamples = 89\nvalue = [8, 81]\nclass = Churn", fillcolor="#4da7e8"] ;
643 -> 699 ;
700 [label="TotalCharges <= -0.9\ngini = 0.1\nsamples = 73\nvalue = [3, 70]\nclass = Churn", fillcolor="#41a1e6"] ;
699 -> 700 ;
701 [label="TotalCharges <= -0.9\ngini = 0.2\nsamples = 23\nvalue = [3, 20]\nclass = Churn", fillcolor="#57ace9"] ;
700 -> 701 ;
702 [label="gender_Male <= 0.5\ngini = 0.2\nsamples = 22\nvalue = [2, 20]\nclass = Churn", fillcolor="#4da7e8"] ;
701 -> 702 ;
703 [label="gini = 0.0\nsamples = 11\nvalue = [0, 11]\nclass = Churn", fillcolor="#399de5"] ;
702 -> 703 ;
704 [label="MultipleLines_Yes <= 0.5\ngini = 0.3\nsamples = 11\nvalue = [2, 9]\nclass = Churn", fillcolor="#65b3eb"] ;
702 -> 704 ;
705 [label="StreamingTV_Yes <= 0.5\ngini = 0.4\nsamples = 6\nvalue = [2, 4]\nclass = Churn", fillcolor="#9ccef2"] ;
704 -> 705 ;
706 [label="gini = 0.0\nsamples = 1\nvalue = [1, 0]\nclass = Not churn", fillcolor="#e58139"] ;
705 -> 706 ;
707 [label="MonthlyCharges <= 0.8\ngini = 0.3\nsamples = 5\nvalue = [1, 4]\nclass = Churn", fillcolor="#6ab6ec"] ;
705 -> 707 ;
708 [label="gini = 0.0\nsamples = 3\nvalue = [0, 3]\nclass = Churn", fillcolor="#399de5"] ;
707 -> 708 ;
709 [label="Dependents_Yes <= 0.5\ngini = 0.5\nsamples = 2\nvalue = [1, 1]\nclass = Not churn", fillcolor="#ffffff"] ;
707 -> 709 ;
710 [label="gini = 0.0\nsamples = 1\nvalue = [1, 0]\nclass = Not churn", fillcolor="#e58139"] ;
709 -> 710 ;
711 [label="gini = 0.0\nsamples = 1\nvalue = [0, 1]\nclass = Churn", fillcolor="#399de5"] ;
709 -> 711 ;
712 [label="gini = 0.0\nsamples = 5\nvalue = [0, 5]\nclass = Churn", fillcolor="#399de5"] ;
704 -> 712 ;
713 [label="gini = 0.0\nsamples = 1\nvalue = [1, 0]\nclass = Not churn", fillcolor="#e58139"] ;
701 -> 713 ;
714 [label="gini = 0.0\nsamples = 50\nvalue = [0, 50]\nclass = Churn", fillcolor="#399de5"] ;
700 -> 714 ;
715 [label="StreamingMovies_Yes <= 0.5\ngini = 0.4\nsamples = 16\nvalue = [5, 11]\nclass = Churn", fillcolor="#93caf1"] ;
699 -> 715 ;
716 [label="MultipleLines_Yes <= 0.5\ngini = 0.5\nsamples = 8\nvalue = [4, 4]\nclass = Not churn", fillcolor="#ffffff"] ;
715 -> 716 ;
717 [label="gini = 0.0\nsamples = 4\nvalue = [4, 0]\nclass = Not churn", fillcolor="#e58139"] ;
716 -> 717 ;
718 [label="gini = 0.0\nsamples = 4\nvalue = [0, 4]\nclass = Churn", fillcolor="#399de5"] ;
716 -> 718 ;
719 [label="PaperlessBilling_Yes <= 0.5\ngini = 0.2\nsamples = 8\nvalue = [1, 7]\nclass = Churn", fillcolor="#55abe9"] ;
715 -> 719 ;
720 [label="gini = 0.0\nsamples = 1\nvalue = [1, 0]\nclass = Not churn", fillcolor="#e58139"] ;
719 -> 720 ;
721 [label="gini = 0.0\nsamples = 7\nvalue = [0, 7]\nclass = Churn", fillcolor="#399de5"] ;
719 -> 721 ;
722 [label="index <= -0.5\ngini = 0.5\nsamples = 32\nvalue = [17, 15]\nclass = Not churn", fillcolor="#fcf0e8"] ;
546 -> 722 ;
723 [label="TotalCharges <= -0.9\ngini = 0.4\nsamples = 16\nvalue = [5, 11]\nclass = Churn", fillcolor="#93caf1"] ;
722 -> 723 ;
724 [label="TotalCharges <= -1.0\ngini = 0.5\nsamples = 12\nvalue = [5, 7]\nclass = Churn", fillcolor="#c6e3f8"] ;
723 -> 724 ;
725 [label="gini = 0.0\nsamples = 3\nvalue = [0, 3]\nclass = Churn", fillcolor="#399de5"] ;
724 -> 725 ;
726 [label="MonthlyCharges <= 0.5\ngini = 0.5\nsamples = 9\nvalue = [5, 4]\nclass = Not churn", fillcolor="#fae6d7"] ;
724 -> 726 ;
727 [label="gini = 0.0\nsamples = 3\nvalue = [0, 3]\nclass = Churn", fillcolor="#399de5"] ;
726 -> 727 ;
728 [label="Dependents_Yes <= 0.5\ngini = 0.3\nsamples = 6\nvalue = [5, 1]\nclass = Not churn", fillcolor="#ea9a61"] ;
726 -> 728 ;
729 [label="gini = 0.0\nsamples = 5\nvalue = [5, 0]\nclass = Not churn", fillcolor="#e58139"] ;
728 -> 729 ;
730 [label="gini = 0.0\nsamples = 1\nvalue = [0, 1]\nclass = Churn", fillcolor="#399de5"] ;
728 -> 730 ;
731 [label="gini = 0.0\nsamples = 4\nvalue = [0, 4]\nclass = Churn", fillcolor="#399de5"] ;
723 -> 731 ;
732 [label="Partner_Yes <= 0.5\ngini = 0.4\nsamples = 16\nvalue = [12, 4]\nclass = Not churn", fillcolor="#eeab7b"] ;
722 -> 732 ;
733 [label="TotalCharges <= -0.8\ngini = 0.2\nsamples = 11\nvalue = [10, 1]\nclass = Not churn", fillcolor="#e88e4d"] ;
732 -> 733 ;
734 [label="gini = 0.0\nsamples = 10\nvalue = [10, 0]\nclass = Not churn", fillcolor="#e58139"] ;
733 -> 734 ;
735 [label="gini = 0.0\nsamples = 1\nvalue = [0, 1]\nclass = Churn", fillcolor="#399de5"] ;
733 -> 735 ;
736 [label="MonthlyCharges <= 0.7\ngini = 0.5\nsamples = 5\nvalue = [2, 3]\nclass = Churn", fillcolor="#bddef6"] ;
732 -> 736 ;
737 [label="gini = 0.0\nsamples = 2\nvalue = [0, 2]\nclass = Churn", fillcolor="#399de5"] ;
736 -> 737 ;
738 [label="gender_Male <= 0.5\ngini = 0.4\nsamples = 3\nvalue = [2, 1]\nclass = Not churn", fillcolor="#f2c09c"] ;
736 -> 738 ;
739 [label="gini = 0.0\nsamples = 1\nvalue = [0, 1]\nclass = Churn", fillcolor="#399de5"] ;
738 -> 739 ;
740 [label="gini = 0.0\nsamples = 2\nvalue = [2, 0]\nclass = Not churn", fillcolor="#e58139"] ;
738 -> 740 ;
741 [label="MonthlyCharges <= 1.0\ngini = 0.5\nsamples = 436\nvalue = [186, 250]\nclass = Churn", fillcolor="#cce6f8"] ;
545 -> 741 ;
742 [label="Contract_One year <= 0.5\ngini = 0.5\nsamples = 334\nvalue = [161, 173]\nclass = Churn", fillcolor="#f1f8fd"] ;
741 -> 742 ;
743 [label="MonthlyCharges <= 0.6\ngini = 0.5\nsamples = 326\nvalue = [153, 173]\nclass = Churn", fillcolor="#e8f4fc"] ;
742 -> 743 ;
744 [label="tenure <= -0.6\ngini = 0.5\nsamples = 185\nvalue = [98, 87]\nclass = Not churn", fillcolor="#fcf1e9"] ;
743 -> 744 ;
745 [label="TotalCharges <= -0.4\ngini = 0.5\nsamples = 181\nvalue = [98, 83]\nclass = Not churn", fillcolor="#fbece1"] ;
744 -> 745 ;
746 [label="MonthlyCharges <= 0.2\ngini = 0.5\nsamples = 165\nvalue = [84, 81]\nclass = Not churn", fillcolor="#fefaf8"] ;
745 -> 746 ;
747 [label="Partner_Yes <= 0.5\ngini = 0.5\nsamples = 32\nvalue = [21, 11]\nclass = Not churn", fillcolor="#f3c3a1"] ;
746 -> 747 ;
748 [label="Dependents_Yes <= 0.5\ngini = 0.2\nsamples = 21\nvalue = [18, 3]\nclass = Not churn", fillcolor="#e9965a"] ;
747 -> 748 ;
749 [label="MonthlyCharges <= 0.2\ngini = 0.2\nsamples = 20\nvalue = [18, 2]\nclass = Not churn", fillcolor="#e88f4f"] ;
748 -> 749 ;
750 [label="gini = 0.0\nsamples = 10\nvalue = [10, 0]\nclass = Not churn", fillcolor="#e58139"] ;
749 -> 750 ;
751 [label="MonthlyCharges <= 0.2\ngini = 0.3\nsamples = 10\nvalue = [8, 2]\nclass = Not churn", fillcolor="#eca06a"] ;
749 -> 751 ;
752 [label="PaperlessBilling_Yes <= 0.5\ngini = 0.4\nsamples = 3\nvalue = [1, 2]\nclass = Churn", fillcolor="#9ccef2"] ;
751 -> 752 ;
753 [label="gini = 0.0\nsamples = 1\nvalue = [1, 0]\nclass = Not churn", fillcolor="#e58139"] ;
752 -> 753 ;
754 [label="gini = 0.0\nsamples = 2\nvalue = [0, 2]\nclass = Churn", fillcolor="#399de5"] ;
752 -> 754 ;
755 [label="gini = 0.0\nsamples = 7\nvalue = [7, 0]\nclass = Not churn", fillcolor="#e58139"] ;
751 -> 755 ;
756 [label="gini = 0.0\nsamples = 1\nvalue = [0, 1]\nclass = Churn", fillcolor="#399de5"] ;
748 -> 756 ;
757 [label="PaperlessBilling_Yes <= 0.5\ngini = 0.4\nsamples = 11\nvalue = [3, 8]\nclass = Churn", fillcolor="#83c2ef"] ;
747 -> 757 ;
758 [label="gini = 0.0\nsamples = 2\nvalue = [2, 0]\nclass = Not churn", fillcolor="#e58139"] ;
757 -> 758 ;
759 [label="index <= -0.7\ngini = 0.2\nsamples = 9\nvalue = [1, 8]\nclass = Churn", fillcolor="#52a9e8"] ;
757 -> 759 ;
760 [label="Dependents_Yes <= 0.5\ngini = 0.5\nsamples = 2\nvalue = [1, 1]\nclass = Not churn", fillcolor="#ffffff"] ;
759 -> 760 ;
761 [label="gini = 0.0\nsamples = 1\nvalue = [1, 0]\nclass = Not churn", fillcolor="#e58139"] ;
760 -> 761 ;
762 [label="gini = 0.0\nsamples = 1\nvalue = [0, 1]\nclass = Churn", fillcolor="#399de5"] ;
760 -> 762 ;
763 [label="gini = 0.0\nsamples = 7\nvalue = [0, 7]\nclass = Churn", fillcolor="#399de5"] ;
759 -> 763 ;
764 [label="MonthlyCharges <= 0.3\ngini = 0.5\nsamples = 133\nvalue = [63, 70]\nclass = Churn", fillcolor="#ebf5fc"] ;
746 -> 764 ;
765 [label="TotalCharges <= -0.8\ngini = 0.5\nsamples = 46\nvalue = [16, 30]\nclass = Churn", fillcolor="#a3d1f3"] ;
764 -> 765 ;
766 [label="gini = 0.0\nsamples = 3\nvalue = [3, 0]\nclass = Not churn", fillcolor="#e58139"] ;
765 -> 766 ;
767 [label="PaymentMethod_Electronic check <= 0.5\ngini = 0.4\nsamples = 43\nvalue = [13, 30]\nclass = Churn", fillcolor="#8fc7f0"] ;
765 -> 767 ;
768 [label="MultipleLines_Yes <= 0.5\ngini = 0.5\nsamples = 22\nvalue = [10, 12]\nclass = Churn", fillcolor="#deeffb"] ;
767 -> 768 ;
769 [label="index <= -0.2\ngini = 0.4\nsamples = 9\nvalue = [6, 3]\nclass = Not churn", fillcolor="#f2c09c"] ;
768 -> 769 ;
770 [label="index <= -1.3\ngini = 0.5\nsamples = 5\nvalue = [2, 3]\nclass = Churn", fillcolor="#bddef6"] ;
769 -> 770 ;
771 [label="gini = 0.0\nsamples = 2\nvalue = [2, 0]\nclass = Not churn", fillcolor="#e58139"] ;
770 -> 771 ;
772 [label="gini = 0.0\nsamples = 3\nvalue = [0, 3]\nclass = Churn", fillcolor="#399de5"] ;
770 -> 772 ;
773 [label="gini = 0.0\nsamples = 4\nvalue = [4, 0]\nclass = Not churn", fillcolor="#e58139"] ;
769 -> 773 ;
774 [label="Partner_Yes <= 0.5\ngini = 0.4\nsamples = 13\nvalue = [4, 9]\nclass = Churn", fillcolor="#91c9f1"] ;
768 -> 774 ;
775 [label="PaymentMethod_Mailed check <= 0.5\ngini = 0.5\nsamples = 9\nvalue = [4, 5]\nclass = Churn", fillcolor="#d7ebfa"] ;
774 -> 775 ;
776 [label="MonthlyCharges <= 0.3\ngini = 0.4\nsamples = 6\nvalue = [4, 2]\nclass = Not churn", fillcolor="#f2c09c"] ;
775 -> 776 ;
777 [label="TotalCharges <= -0.6\ngini = 0.4\nsamples = 3\nvalue = [1, 2]\nclass = Churn", fillcolor="#9ccef2"] ;
776 -> 777 ;
778 [label="gini = 0.0\nsamples = 1\nvalue = [1, 0]\nclass = Not churn", fillcolor="#e58139"] ;
777 -> 778 ;
779 [label="gini = 0.0\nsamples = 2\nvalue = [0, 2]\nclass = Churn", fillcolor="#399de5"] ;
777 -> 779 ;
780 [label="gini = 0.0\nsamples = 3\nvalue = [3, 0]\nclass = Not churn", fillcolor="#e58139"] ;
776 -> 780 ;
781 [label="gini = 0.0\nsamples = 3\nvalue = [0, 3]\nclass = Churn", fillcolor="#399de5"] ;
775 -> 781 ;
782 [label="gini = 0.0\nsamples = 4\nvalue = [0, 4]\nclass = Churn", fillcolor="#399de5"] ;
774 -> 782 ;
783 [label="tenure <= -0.9\ngini = 0.2\nsamples = 21\nvalue = [3, 18]\nclass = Churn", fillcolor="#5aade9"] ;
767 -> 783 ;
784 [label="PaperlessBilling_Yes <= 0.5\ngini = 0.5\nsamples = 8\nvalue = [3, 5]\nclass = Churn", fillcolor="#b0d8f5"] ;
783 -> 784 ;
785 [label="gini = 0.0\nsamples = 3\nvalue = [0, 3]\nclass = Churn", fillcolor="#399de5"] ;
784 -> 785 ;
786 [label="index <= 0.5\ngini = 0.5\nsamples = 5\nvalue = [3, 2]\nclass = Not churn", fillcolor="#f6d5bd"] ;
784 -> 786 ;
787 [label="gender_Male <= 0.5\ngini = 0.4\nsamples = 3\nvalue = [1, 2]\nclass = Churn", fillcolor="#9ccef2"] ;
786 -> 787 ;
788 [label="gini = 0.0\nsamples = 2\nvalue = [0, 2]\nclass = Churn", fillcolor="#399de5"] ;
787 -> 788 ;
789 [label="gini = 0.0\nsamples = 1\nvalue = [1, 0]\nclass = Not churn", fillcolor="#e58139"] ;
787 -> 789 ;
790 [label="gini = 0.0\nsamples = 2\nvalue = [2, 0]\nclass = Not churn", fillcolor="#e58139"] ;
786 -> 790 ;
791 [label="gini = 0.0\nsamples = 13\nvalue = [0, 13]\nclass = Churn", fillcolor="#399de5"] ;
783 -> 791 ;
792 [label="TotalCharges <= -0.7\ngini = 0.5\nsamples = 87\nvalue = [47, 40]\nclass = Not churn", fillcolor="#fbece2"] ;
764 -> 792 ;
793 [label="OnlineBackup_Yes <= 0.5\ngini = 0.4\nsamples = 15\nvalue = [4, 11]\nclass = Churn", fillcolor="#81c1ee"] ;
792 -> 793 ;
794 [label="index <= 1.1\ngini = 0.3\nsamples = 13\nvalue = [2, 11]\nclass = Churn", fillcolor="#5dafea"] ;
793 -> 794 ;
795 [label="MonthlyCharges <= 0.4\ngini = 0.2\nsamples = 12\nvalue = [1, 11]\nclass = Churn", fillcolor="#4ba6e7"] ;
794 -> 795 ;
796 [label="MonthlyCharges <= 0.3\ngini = 0.4\nsamples = 3\nvalue = [1, 2]\nclass = Churn", fillcolor="#9ccef2"] ;
795 -> 796 ;
797 [label="gini = 0.0\nsamples = 2\nvalue = [0, 2]\nclass = Churn", fillcolor="#399de5"] ;
796 -> 797 ;
798 [label="gini = 0.0\nsamples = 1\nvalue = [1, 0]\nclass = Not churn", fillcolor="#e58139"] ;
796 -> 798 ;
799 [label="gini = 0.0\nsamples = 9\nvalue = [0, 9]\nclass = Churn", fillcolor="#399de5"] ;
795 -> 799 ;
800 [label="gini = 0.0\nsamples = 1\nvalue = [1, 0]\nclass = Not churn", fillcolor="#e58139"] ;
794 -> 800 ;
801 [label="gini = 0.0\nsamples = 2\nvalue = [2, 0]\nclass = Not churn", fillcolor="#e58139"] ;
793 -> 801 ;
802 [label="tenure <= -0.6\ngini = 0.5\nsamples = 72\nvalue = [43, 29]\nclass = Not churn", fillcolor="#f7d6bf"] ;
792 -> 802 ;
803 [label="tenure <= -0.7\ngini = 0.5\nsamples = 69\nvalue = [43, 26]\nclass = Not churn", fillcolor="#f5cdb1"] ;
802 -> 803 ;
804 [label="tenure <= -0.7\ngini = 0.5\nsamples = 63\nvalue = [37, 26]\nclass = Not churn", fillcolor="#f7dac4"] ;
803 -> 804 ;
805 [label="index <= 0.8\ngini = 0.5\nsamples = 55\nvalue = [35, 20]\nclass = Not churn", fillcolor="#f4c9aa"] ;
804 -> 805 ;
806 [label="TotalCharges <= -0.6\ngini = 0.4\nsamples = 38\nvalue = [27, 11]\nclass = Not churn", fillcolor="#f0b48a"] ;
805 -> 806 ;
807 [label="TotalCharges <= -0.6\ngini = 0.5\nsamples = 31\nvalue = [20, 11]\nclass = Not churn", fillcolor="#f3c6a6"] ;
806 -> 807 ;
808 [label="TotalCharges <= -0.7\ngini = 0.2\nsamples = 10\nvalue = [9, 1]\nclass = Not churn", fillcolor="#e88f4f"] ;
807 -> 808 ;
809 [label="TotalCharges <= -0.7\ngini = 0.4\nsamples = 3\nvalue = [2, 1]\nclass = Not churn", fillcolor="#f2c09c"] ;
808 -> 809 ;
810 [label="gini = 0.0\nsamples = 2\nvalue = [2, 0]\nclass = Not churn", fillcolor="#e58139"] ;
809 -> 810 ;
811 [label="gini = 0.0\nsamples = 1\nvalue = [0, 1]\nclass = Churn", fillcolor="#399de5"] ;
809 -> 811 ;
812 [label="gini = 0.0\nsamples = 7\nvalue = [7, 0]\nclass = Not churn", fillcolor="#e58139"] ;
808 -> 812 ;
813 [label="PaymentMethod_Mailed check <= 0.5\ngini = 0.5\nsamples = 21\nvalue = [11, 10]\nclass = Not churn", fillcolor="#fdf4ed"] ;
807 -> 813 ;
814 [label="index <= -0.4\ngini = 0.5\nsamples = 18\nvalue = [8, 10]\nclass = Churn", fillcolor="#d7ebfa"] ;
813 -> 814 ;
815 [label="TechSupport_Yes <= 0.5\ngini = 0.3\nsamples = 9\nvalue = [2, 7]\nclass = Churn", fillcolor="#72b9ec"] ;
814 -> 815 ;
816 [label="MonthlyCharges <= 0.3\ngini = 0.2\nsamples = 8\nvalue = [1, 7]\nclass = Churn", fillcolor="#55abe9"] ;
815 -> 816 ;
817 [label="gini = 0.0\nsamples = 1\nvalue = [1, 0]\nclass = Not churn", fillcolor="#e58139"] ;
816 -> 817 ;
818 [label="gini = 0.0\nsamples = 7\nvalue = [0, 7]\nclass = Churn", fillcolor="#399de5"] ;
816 -> 818 ;
819 [label="gini = 0.0\nsamples = 1\nvalue = [1, 0]\nclass = Not churn", fillcolor="#e58139"] ;
815 -> 819 ;
820 [label="TotalCharges <= -0.6\ngini = 0.4\nsamples = 9\nvalue = [6, 3]\nclass = Not churn", fillcolor="#f2c09c"] ;
814 -> 820 ;
821 [label="gini = 0.0\nsamples = 2\nvalue = [0, 2]\nclass = Churn", fillcolor="#399de5"] ;
820 -> 821 ;
822 [label="Dependents_Yes <= 0.5\ngini = 0.2\nsamples = 7\nvalue = [6, 1]\nclass = Not churn", fillcolor="#e9965a"] ;
820 -> 822 ;
823 [label="gini = 0.0\nsamples = 6\nvalue = [6, 0]\nclass = Not churn", fillcolor="#e58139"] ;
822 -> 823 ;
824 [label="gini = 0.0\nsamples = 1\nvalue = [0, 1]\nclass = Churn", fillcolor="#399de5"] ;
822 -> 824 ;
825 [label="gini = 0.0\nsamples = 3\nvalue = [3, 0]\nclass = Not churn", fillcolor="#e58139"] ;
813 -> 825 ;
826 [label="gini = 0.0\nsamples = 7\nvalue = [7, 0]\nclass = Not churn", fillcolor="#e58139"] ;
806 -> 826 ;
827 [label="MonthlyCharges <= 0.5\ngini = 0.5\nsamples = 17\nvalue = [8, 9]\nclass = Churn", fillcolor="#e9f4fc"] ;
805 -> 827 ;
828 [label="gini = 0.0\nsamples = 5\nvalue = [5, 0]\nclass = Not churn", fillcolor="#e58139"] ;
827 -> 828 ;
829 [label="index <= 1.7\ngini = 0.4\nsamples = 12\nvalue = [3, 9]\nclass = Churn", fillcolor="#7bbeee"] ;
827 -> 829 ;
830 [label="tenure <= -0.9\ngini = 0.3\nsamples = 11\nvalue = [2, 9]\nclass = Churn", fillcolor="#65b3eb"] ;
829 -> 830 ;
831 [label="tenure <= -0.9\ngini = 0.4\nsamples = 6\nvalue = [2, 4]\nclass = Churn", fillcolor="#9ccef2"] ;
830 -> 831 ;
832 [label="OnlineSecurity_Yes <= 0.5\ngini = 0.3\nsamples = 5\nvalue = [1, 4]\nclass = Churn", fillcolor="#6ab6ec"] ;
831 -> 832 ;
833 [label="gini = 0.0\nsamples = 4\nvalue = [0, 4]\nclass = Churn", fillcolor="#399de5"] ;
832 -> 833 ;
834 [label="gini = 0.0\nsamples = 1\nvalue = [1, 0]\nclass = Not churn", fillcolor="#e58139"] ;
832 -> 834 ;
835 [label="gini = 0.0\nsamples = 1\nvalue = [1, 0]\nclass = Not churn", fillcolor="#e58139"] ;
831 -> 835 ;
836 [label="gini = 0.0\nsamples = 5\nvalue = [0, 5]\nclass = Churn", fillcolor="#399de5"] ;
830 -> 836 ;
837 [label="gini = 0.0\nsamples = 1\nvalue = [1, 0]\nclass = Not churn", fillcolor="#e58139"] ;
829 -> 837 ;
838 [label="MultipleLines_Yes <= 0.5\ngini = 0.4\nsamples = 8\nvalue = [2, 6]\nclass = Churn", fillcolor="#7bbeee"] ;
804 -> 838 ;
839 [label="PaymentMethod_Credit card (automatic) <= 0.5\ngini = 0.4\nsamples = 3\nvalue = [2, 1]\nclass = Not churn", fillcolor="#f2c09c"] ;
838 -> 839 ;
840 [label="gini = 0.0\nsamples = 2\nvalue = [2, 0]\nclass = Not churn", fillcolor="#e58139"] ;
839 -> 840 ;
